Language model created by QuickLM on Wed Jul 22 00:04:02 EDT 2015
Copyright (c) 1996-2010 Carnegie Mellon University and Alexander I. Rudnicky

The model is in standard ARPA format, designed by Doug Paul while he was at MITRE.

The code that was used to produce this language model is available in Open Source.
Please visit http://www.speech.cs.cmu.edu/tools/ for more information

The (fixed) discount mass is 0.5. The backoffs are computed using the ratio method.
This model based on a corpus of 5382 sentences and 5095 words

\data\
ngram 1=5095
ngram 2=20786
ngram 3=27298

\1-grams:
-1.2093 </s> -0.3010
-1.2093 <s> -0.1701
-1.9695 A -0.2504
-4.6392 A.M -0.2721
-4.9403 ABANDONED -0.3010
-4.9403 ABANDONING -0.3010
-4.9403 ABILITY -0.2733
-4.0372 ABLE -0.2961
-2.7759 ABOUT -0.2340
-4.6392 ABOVE -0.2942
-4.4631 ABROAD -0.2991
-4.9403 ABRUPTLY -0.2733
-4.9403 ABSOLUTE -0.3010
-3.8611 ABSOLUTELY -0.2967
-4.6392 ABSTRACT -0.3010
-4.9403 ABUSE -0.2733
-4.9403 ACADEMIC -0.3009
-4.9403 ACCELERATION -0.2733
-4.9403 ACCENTUATE -0.3002
-3.8989 ACCEPT -0.2921
-4.6392 ACCEPTABLE -0.2681
-4.9403 ACCESS -0.2999
-4.4631 ACCIDENT -0.2710
-4.9403 ACCIDENTS -0.2733
-4.9403 ACCOMPLICES -0.2733
-4.9403 ACCOMPLISHED -0.2963
-4.4631 ACCORDING -0.2961
-4.3382 ACCOUNT -0.2721
-4.9403 ACCOUNTANT -0.3010
-4.9403 ACCOUNTING -0.3009
-4.9403 ACCOUNTS -0.2733
-4.6392 ACCURATE -0.2733
-4.6392 ACHIEVE -0.2996
-4.9403 ACHIEVED -0.3000
-4.9403 ACOUSTIC -0.2733
-4.9403 ACQUAINTANCE -0.3004
-4.9403 ACQUISITIONS -0.2995
-4.9403 ACROPHOBIA -0.3007
-4.2413 ACROSS -0.2941
-4.3382 ACT -0.2699
-4.6392 ACTING -0.2972
-4.6392 ACTION -0.2733
-4.9403 ACTIVE -0.2995
-4.9403 ACTIVISTS -0.3009
-4.4631 ACTIVITIES -0.2729
-4.9403 ACTIVITY -0.2993
-4.3382 ACTOR -0.2733
-4.6392 ACTORS -0.2972
-4.9403 ACTS -0.3006
-4.2413 ACTUALLY -0.2955
-4.9403 ACUPUNCTURE -0.3010
-4.2413 AD -0.2681
-4.9403 ADAMS -0.2733
-4.6392 ADAPTABILITY -0.2733
-4.2413 ADD -0.2675
-4.6392 ADDED -0.3010
-4.2413 ADDICTED -0.2961
-4.9403 ADDICTIVE -0.3010
-4.9403 ADDISON'S -0.3010
-4.9403 ADDITION -0.2998
-4.3382 ADDRESS -0.2730
-4.9403 ADHERE -0.2961
-4.9403 ADHERING -0.2961
-4.9403 ADJUSTS -0.3007
-4.9403 ADMINISTRATION -0.2733
-4.9403 ADMINISTRATIVE -0.3010
-4.9403 ADMIRATION -0.2997
-4.4631 ADMIRE -0.2656
-4.6392 ADMITTED -0.2961
-4.9403 ADORE -0.3009
-4.9403 ADRENALINE -0.2994
-4.9403 ADRIFT -0.2733
-4.4631 ADS -0.2942
-4.9403 ADVANCE -0.2733
-4.9403 ADVANCEMENT -0.2990
-4.9403 ADVANCING -0.3004
-4.1621 ADVANTAGE -0.2628
-4.9403 ADVANTAGES -0.3008
-4.9403 ADVENTUROUS -0.3010
-4.9403 ADVERSITY -0.2733
-4.9403 ADVERTISE -0.2733
-4.4631 ADVICE -0.2984
-4.9403 ADVISE -0.2971
-4.6392 ADVISED -0.2961
-4.6392 ADVOCATE -0.2731
-4.9403 AERODYNAMICS -0.2995
-4.9403 AESTHETICS -0.2733
-4.6392 AFFECT -0.3010
-4.6392 AFFECTED -0.3010
-4.9403 AFFECTS -0.2945
-4.6392 AFFORDABLE -0.2733
-3.6615 AFRAID -0.2562
-4.3382 AFRICA -0.2730
-4.4631 AFRICAN -0.2995
-3.6615 AFTER -0.2869
-3.8263 AFTERNOON -0.2688
-4.9403 AFTERWARD -0.2733
-3.6850 AGAIN -0.2641
-4.2413 AGAINST -0.2963
-4.3382 AGE -0.2708
-4.9403 AGED -0.2733
-3.9403 AGENDA -0.2699
-4.9403 AGENT -0.3007
-4.6392 AGES -0.2681
-4.9403 AGILITY -0.2982
-4.6392 AGO -0.2731
-4.6392 AGORAPHOBIA -0.2722
-4.9403 AGORAPHOBIC -0.2733
-3.6180 AGREE -0.2599
-4.3382 AGREED -0.2944
-4.6392 AGREEMENT -0.2733
-4.9403 AGROUND -0.2995
-4.3382 AHEAD -0.2695
-4.9403 AI'S -0.3004
-4.1621 AIR -0.2733
-4.6392 AIRBAG -0.2704
-4.6392 AIRCRAFT -0.2733
-4.9403 AIRLINE -0.2733
-4.2413 AIRPORT -0.2733
-4.9403 AISLE -0.3010
-4.9403 AIT -0.2733
-4.9403 AL -0.3010
-4.9403 ALABAMA -0.2993
-4.9403 ALBERTA -0.3010
-4.9403 ALCOHOL -0.3010
-4.9403 ALERT -0.2945
-4.9403 ALERTS -0.3010
-4.6392 ALEX -0.3010
-4.9403 ALFA -0.3010
-4.9403 ALGEBRA -0.2733
-4.9403 ALIEN -0.2733
-4.9403 ALISON -0.2733
-4.9403 ALIVE -0.2733
-3.0265 ALL -0.2348
-4.9403 ALLERGIC -0.2961
-4.9403 ALLIANCES -0.2733
-4.9403 ALLITERATION -0.2995
-4.2413 ALLOW -0.2985
-4.6392 ALLOWED -0.2681
-4.9403 ALLOWING -0.3010
-4.1621 ALMOST -0.3000
-4.3382 ALONE -0.2698
-4.4631 ALONG -0.2717
-4.9403 ALPHA -0.2733
-3.9403 ALREADY -0.2722
-4.9403 ALRIGHT -0.3010
-4.0372 ALSO -0.2936
-4.9403 ALTAR -0.2733
-4.3382 ALTERNATIVE -0.2680
-4.9403 ALTIMETER -0.2733
-4.9403 ALUMINUM -0.3010
-3.5253 ALWAYS -0.2980
-3.8263 AM -0.2676
-4.9403 AMANDA -0.2733
-3.9403 AMAZING -0.2707
-4.9403 AMBITIOUS -0.2974
-4.9403 AMBULANCE -0.2733
-4.9403 AMENITIES -0.3008
-4.9403 AMERICA -0.3006
-4.0952 AMERICAN -0.2732
-4.9403 AMMUNITION -0.3008
-4.6392 AMONG -0.2945
-4.6392 AMOUNT -0.2990
-4.9403 AMOUNTS -0.2990
-4.9403 AMPICILLIN -0.3010
-4.9403 AMY -0.3009
-2.9232 AN -0.2978
-4.9403 ANACHRONISM -0.2733
-4.9403 ANACHRONISTIC -0.2733
-4.6392 ANALYSIS -0.2718
-4.9403 ANALYTICAL -0.3010
-4.9403 ANALYZE -0.3010
-4.9403 ANALYZED -0.2733
-2.4560 AND -0.2517
-4.6392 ANDREA -0.3005
-4.9403 ANDREW -0.2733
-4.6392 ANDREWS -0.2733
-4.9403 ANGELA -0.3010
-4.1621 ANGELES -0.2673
-4.9403 ANGKOR -0.3010
-4.3382 ANGRY -0.2730
-4.4631 ANIMAL -0.2733
-4.0952 ANIMALS -0.2716
-4.9403 ANKLE -0.2733
-4.9403 ANNA'S -0.3007
-4.9403 ANNOUNCED -0.2733
-4.9403 ANNOYED -0.2733
-4.6392 ANNOYING -0.2733
-4.9403 ANNUAL -0.3010
-3.9403 ANOTHER -0.2996
-4.4631 ANSWER -0.2949
-4.9403 ANTARCTICA -0.2733
-4.9403 ANTENNA -0.2733
-4.6392 ANTI -0.3010
-4.9403 ANTIBIOTICS -0.2995
-4.6392 ANTICIPATE -0.2994
-4.9403 ANTIDEPRESSANTS -0.2733
-4.9403 ANTISEPTIC -0.2733
-4.9403 ANTITRUST -0.3010
-4.9403 ANTIVIRUS -0.3010
-4.9403 ANTON -0.2733
-4.9403 ANXIETY -0.2733
-3.2682 ANY -0.2963
-4.9403 ANYBODY -0.2982
-4.9403 ANYMORE -0.2733
-3.9860 ANYONE -0.2655
-4.9403 ANYONE'S -0.3010
-3.5601 ANYTHING -0.2623
-4.3382 ANYWAY -0.2711
-4.6392 ANYWHERE -0.2729
-3.8263 APARTMENT -0.2688
-4.9403 APARTMENTS -0.2733
-4.4631 APOLOGIES -0.2997
-4.2413 APOLOGIZE -0.2716
-4.4631 APOLOGY -0.2958
-4.9403 APOSTROPHE -0.2733
-4.9403 APP -0.3009
-4.9403 APPARATUS -0.2733
-4.9403 APPARENTLY -0.3010
-4.9403 APPEARANCE -0.3010
-4.9403 APPEARS -0.2961
-4.9403 APPENDICES -0.2996
-4.9403 APPLAUD -0.2971
-4.3382 APPLE -0.2700
-4.9403 APPLES -0.2995
-4.4631 APPLICANTS -0.2995
-4.3382 APPLICATION -0.2720
-4.9403 APPLICATIONS -0.3009
-4.9403 APPLIED -0.2733
-4.4631 APPLY -0.2733
-4.6392 APPLYING -0.2997
-4.2413 APPOINTMENT -0.2681
-4.0952 APPRECIATE -0.2897
-4.9403 APPROACH -0.3010
-4.6392 APPROPRIATE -0.2720
-4.9403 APPROVAL -0.2733
-4.9403 APPROVE -0.2733
-4.4631 APRIL -0.3007
-4.9403 AQUARIUM -0.2733
-4.9403 ARACHNOPHOBIA -0.3008
-4.6392 ARCHITECT -0.2733
-4.6392 ARCHITECTURE -0.2982
-2.4916 ARE -0.2639
-4.0952 AREA -0.2696
-4.3382 AREAS -0.2655
-3.8611 AREN'T -0.2957
-4.4631 ARGUMENT -0.2981
-4.9403 ARGUMENTATIVE -0.3004
-4.9403 ARISES -0.2733
-4.6392 ARM -0.2733
-4.9403 ARMORED -0.3010
-4.9403 ARMS -0.2733
-3.6850 AROUND -0.2542
-4.6392 ARRANGE -0.2961
-4.9403 ARRANGEMENT -0.2733
-4.9403 ARRANGING -0.2963
-4.9403 ARRESTED -0.2733
-4.9403 ARRIVAL -0.2733
-4.9403 ARRIVE -0.2733
-4.6392 ARRIVED -0.2944
-4.6392 ARRIVING -0.2998
-4.9403 ARSON -0.2733
-4.3382 ART -0.2681
-4.6392 ARTICLE -0.2972
-4.9403 ARTILLERY -0.2733
-4.6392 ARTIST -0.2722
-4.9403 ARTISTS -0.2733
-4.9403 ARTWORKS -0.2993
-3.0058 AS -0.2618
-4.9403 ASHAMED -0.2990
-4.3382 ASIA -0.2693
-4.9403 ASIAN -0.3010
-3.7098 ASK -0.2866
-3.8989 ASKED -0.2898
-4.3382 ASKING -0.2995
-4.9403 ASPARAGUS -0.2733
-4.9403 ASPECT -0.2990
-4.6392 ASPECTS -0.2940
-4.9403 ASPIRATIONS -0.2993
-4.9403 ASPIRIN -0.2997
-4.9403 ASSERTION -0.2995
-4.9403 ASSESS -0.2945
-4.9403 ASSESSED -0.3009
-4.9403 ASSESSMENT -0.3004
-4.6392 ASSETS -0.2691
-4.9403 ASSIDUOUSLY -0.2733
-4.4631 ASSISTANCE -0.2731
-4.4631 ASSISTANT -0.2733
-4.9403 ASSOCIATED -0.3003
-4.9403 ASSOCIATIONS -0.2733
-4.3382 ASSURE -0.2971
-4.9403 ASSURED -0.2733
-4.6392 ASTERN -0.2733
-4.9403 ASTRONAUTS -0.2733
-2.8684 AT -0.2489
-4.4631 ATE -0.2958
-4.9403 ATHLETE -0.3010
-4.9403 ATHLETES -0.2995
-4.9403 ATMOSPHERE -0.2733
-4.9403 ATTACKED -0.3006
-4.9403 ATTEND -0.2945
-4.9403 ATTENDANT -0.2733
-3.7642 ATTENTION -0.2661
-4.4631 ATTITUDE -0.2726
-4.4631 ATTRACTIVE -0.2995
-4.9403 ATTRACTS -0.3009
-4.9403 AUBERGINE -0.2733
-4.6392 AUDIENCE -0.2733
-4.9403 AUDIENCE' -0.3005
-4.9403 AUDITORIUM -0.2733
-4.6392 AUGUST -0.3009
-4.9403 AUNT -0.2733
-4.9403 AUSTRALIA -0.2733
-4.9403 AUTHENTIC -0.3010
-4.9403 AUTHORITIES -0.2733
-4.9403 AUTHORS -0.3010
-4.9403 AUTOBIOGRAPHY -0.2733
-4.1621 AVAILABLE -0.2666
-4.9403 AVALANCHE -0.2733
-4.4631 AVENUE -0.2733
-4.9403 AVERAGE -0.3010
-4.4631 AVOID -0.2941
-4.9403 AVOIDED -0.3010
-4.9403 AVOIDING -0.3010
-4.9403 AWARD -0.2733
-4.4631 AWARE -0.2990
-4.6392 AWARENESS -0.2989
-4.0372 AWAY -0.2730
-4.3382 AWFUL -0.2733
-4.6392 AWKWARD -0.3006
-4.3382 AXIS -0.2733
-4.9403 B -0.2733
-4.9403 BABY -0.3010
-4.9403 BACHELOR -0.2733
-4.6392 BACHELOR'S -0.2733
-3.3840 BACK -0.2475
-4.9403 BACKFIRED -0.2733
-4.6392 BACKGAMMON -0.2719
-4.2413 BACKGROUND -0.2703
-4.9403 BACKPACK -0.2733
-4.9403 BACKSTABBER -0.2733
-3.6180 BAD -0.2697
-4.9403 BADLY -0.2998
-4.9403 BADMINTON -0.2733
-4.9403 BAG -0.2961
-4.9403 BAGGAGE -0.3010
-4.6392 BAGGY -0.2733
-4.6392 BAGS -0.2726
-4.9403 BAHRAIN -0.2733
-4.4631 BAKED -0.3010
-4.3382 BAKERY -0.2704
-4.6392 BALANCE -0.2704
-4.9403 BALANCING -0.3010
-4.6392 BALCONY -0.2733
-4.9403 BALD -0.2733
-4.9403 BALI -0.3010
-4.9403 BALL -0.3010
-4.9403 BALLROOM -0.2733
-4.9403 BAN -0.3006
-4.9403 BAND -0.3010
-4.9403 BANDAGE -0.2733
-4.9403 BANDAGES -0.2733
-4.4631 BANGKOK -0.2733
-3.6392 BANK -0.2678
-4.9403 BANKING -0.3010
-4.9403 BANKS -0.3010
-4.9403 BANNED -0.2733
-4.0372 BAR -0.2732
-4.9403 BARBITURATES -0.3010
-4.6392 BARELY -0.3009
-4.9403 BARGAIN -0.2733
-4.9403 BARK -0.3002
-4.9403 BARTERED -0.2733
-4.6392 BASE -0.2726
-4.3382 BASEBALL -0.2733
-4.2413 BASED -0.2998
-4.9403 BASEMENT -0.2733
-4.6392 BASIC -0.2994
-4.9403 BASICALLY -0.2997
-4.9403 BASICS -0.2733
-4.4631 BASIS -0.2733
-4.9403 BASKET -0.2733
-4.6392 BASKETBALL -0.2733
-4.9403 BATH -0.2733
-4.1621 BATHROOM -0.2714
-4.9403 BATHROOM'S -0.3002
-4.9403 BATHTUB -0.2733
-4.6392 BATTERY -0.2704
-4.9403 BATTLESHIP -0.2733
-4.9403 BATTLESTAR -0.3009
-2.6638 BE -0.2360
-4.3382 BEACH -0.2733
-4.9403 BEACHES -0.2993
-4.9403 BEANS -0.2733
-4.9403 BEAR -0.2733
-4.4631 BEARING -0.3001
-4.4631 BEAT -0.2663
-4.9403 BEATS -0.2963
-4.2413 BEAUTIFUL -0.2996
-4.9403 BECAME -0.3010
-3.6392 BECAUSE -0.2844
-4.2413 BECOME -0.2959
-4.9403 BECOMES -0.2963
-4.4631 BECOMING -0.2960
-4.1621 BED -0.2712
-4.1621 BEDROOM -0.2703
-4.9403 BEDROOM'S -0.3009
-4.9403 BEDROOMS -0.2995
-4.6392 BEDTIME -0.2730
-4.9403 BEE -0.2733
-4.6392 BEEF -0.2996
-3.1844 BEEN -0.2606
-4.9403 BEER -0.2733
-4.3382 BEES -0.2976
-4.9403 BEETLE -0.2733
-3.5601 BEFORE -0.2554
-4.0372 BEGIN -0.2669
-4.4631 BEGINNING -0.2672
-4.9403 BEGUN -0.3007
-4.9403 BEHALF -0.2990
-4.9403 BEHAVE -0.3004
-4.4631 BEHAVIOR -0.3004
-4.1621 BEHIND -0.2651
-4.4631 BEIGE -0.2726
-4.6392 BEIJING -0.2726
-3.5423 BEING -0.2631
-4.6392 BELIEF -0.2991
-3.8263 BELIEVE -0.2587
-4.9403 BELIEVED -0.3000
-4.9403 BELIEVER -0.2993
-4.9403 BELIEVES -0.2995
-4.9403 BELL -0.3010
-4.4631 BELONG -0.2961
-4.9403 BELOW -0.3010
-4.9403 BELT -0.2733
-4.6392 BEN -0.2727
-4.6392 BENCHMARK -0.2982
-4.6392 BENEFICIAL -0.2733
-4.6392 BENEFIT -0.2979
-4.9403 BENEFITING -0.3007
-4.2413 BENEFITS -0.2681
-4.9403 BENJAMIN -0.2733
-4.9403 BENZYLPENICILLIN -0.2982
-4.9403 BERLIN -0.3002
-4.9403 BERTHING -0.3005
-4.6392 BESIDES -0.2984
-3.4631 BEST -0.2898
-4.2413 BET -0.2730
-3.3605 BETTER -0.2551
-3.9403 BETWEEN -0.2943
-4.9403 BEYOND -0.2999
-4.9403 BIBLIOGRAPHY -0.3010
-4.9403 BID -0.2982
-3.5253 BIG -0.2697
-4.4631 BIGGER -0.2731
-3.8989 BIGGEST -0.3006
-4.3382 BIKE -0.2717
-4.9403 BIKING -0.2733
-4.2413 BILL -0.3000
-4.9403 BILL' -0.2733
-4.9403 BILL'S -0.3009
-4.6392 BILLING -0.2982
-4.0952 BILLION -0.2729
-4.9403 BINDER -0.2733
-4.6392 BIODIESEL -0.3000
-4.9403 BIOLOGY -0.2733
-4.9403 BIOMASS -0.2733
-4.9403 BIRD -0.2733
-4.9403 BIRDWATCHING -0.2733
-4.3382 BIRTHDAY -0.2732
-4.9403 BISCUIT -0.2733
-4.4631 BIT -0.2729
-4.9403 BITES -0.2733
-4.9403 BITUMEN -0.2995
-4.3382 BLACK -0.3008
-4.9403 BLADE -0.3010
-4.6392 BLAME -0.2725
-4.6392 BLANKET -0.2716
-4.9403 BLANKETS -0.2733
-4.9403 BLENDS -0.2993
-4.6392 BLIZZARD -0.2733
-4.6392 BLOCK -0.2733
-4.9403 BLOCKS -0.2733
-4.9403 BLOGGING -0.3003
-4.9403 BLOGS -0.2733
-4.9403 BLOND -0.3010
-4.4631 BLOOD -0.2703
-4.9403 BLOUSE -0.2982
-3.9860 BLUE -0.2713
-4.6392 BLUETOOTH -0.2704
-3.7642 BOARD -0.2902
-4.9403 BOARDING -0.3010
-4.9403 BOARDINGS -0.3005
-4.4631 BOAT -0.2731
-4.9403 BOBCAT -0.2733
-4.4631 BODY -0.2733
-4.9403 BOILS -0.3009
-4.9403 BON -0.3010
-4.6392 BONE -0.2989
-4.9403 BONNET -0.2733
-4.9403 BONUSES -0.3008
-4.0372 BOOK -0.2671
-4.9403 BOOKED -0.2733
-4.6392 BOOKS -0.2733
-4.9403 BOOKSHELF -0.2733
-4.6392 BOOKSTORE -0.2982
-4.9403 BOOST -0.2945
-4.9403 BOOT -0.2733
-4.3382 BOOTS -0.2733
-4.9403 BORDER -0.2982
-4.6392 BORE -0.2724
-4.2413 BORING -0.2731
-4.3382 BORN -0.2934
-4.4631 BORROW -0.2940
-4.0372 BOSS -0.2716
-4.4631 BOSTON -0.2733
-3.8989 BOTH -0.2989
-4.9403 BOTHER -0.3010
-4.9403 BOTHERING -0.3002
-4.3382 BOTTOM -0.3006
-4.0372 BOUGHT -0.2872
-4.9403 BOULEVARD -0.2733
-4.9403 BOUNCE -0.3009
-4.9403 BOUND -0.2961
-4.9403 BOW -0.2733
-4.6392 BOX -0.2730
-4.9403 BOXES -0.2733
-4.6392 BOY -0.2733
-4.6392 BOYFRIEND -0.2999
-4.9403 BRAD -0.3007
-4.9403 BRAINSTORM -0.3007
-4.4631 BRAINSTORMING -0.2704
-4.9403 BRANCH -0.3010
-4.9403 BRANCHES -0.2733
-4.9403 BRAND -0.2990
-4.9403 BRANDENBURG -0.3010
-4.9403 BRAVE -0.3009
-4.9403 BRAVER -0.3006
-4.4631 BRAVO -0.2733
-4.1621 BREAD -0.2724
-4.2413 BREAK -0.2663
-4.2413 BREAKFAST -0.2717
-4.6392 BREAKING -0.3005
-4.9403 BREAKNECK -0.3010
-4.9403 BREAKS -0.2993
-4.9403 BREATHING -0.3010
-4.9403 BREATHTAKING -0.3010
-4.4631 BRENDA -0.2725
-4.9403 BRENNAN -0.2982
-4.4631 BRENNAN'S -0.2732
-4.9403 BRENT -0.2733
-4.9403 BRIBERY -0.2982
-4.9403 BRIBES -0.3008
-4.9403 BRICKS -0.2733
-4.9403 BRIGHTEST -0.3010
-4.9403 BRILLIANT -0.3004
-4.3382 BRING -0.2943
-4.9403 BRINGING -0.2995
-4.9403 BRINGS -0.2971
-4.6392 BRITISH -0.2733
-4.9403 BRITNEY -0.3009
-4.9403 BRITTNEY -0.2733
-4.0952 BROKE -0.2647
-4.2413 BROKEN -0.2714
-4.9403 BROKERAGE -0.3010
-4.3382 BROTHER -0.2733
-4.9403 BROTHER'S -0.3010
-4.9403 BROTHERS -0.2733
-4.4631 BROUGHT -0.2913
-4.0952 BROWN -0.2732
-4.9403 BROWNIE -0.2733
-4.6392 BRUISE -0.2721
-4.9403 BRUISED -0.2999
-4.9403 BRUISES -0.2733
-4.9403 BRULEE -0.2733
-4.9403 BRUTAL -0.3010
-4.9403 BRYONIA -0.2733
-4.6392 BUBBLE -0.3009
-4.9403 BUDAPEST -0.2733
-4.9403 BUDDHA -0.3010
-4.0372 BUDGET -0.2655
-4.4631 BUILD -0.2995
-4.0372 BUILDING -0.2676
-4.4631 BUILDINGS -0.2731
-4.1621 BUILT -0.2979
-4.1621 BULK -0.2733
-4.9403 BUMPER -0.2982
-4.9403 BUOY -0.3009
-4.9403 BURDEN -0.2945
-4.9403 BURGLARIES -0.3008
-4.9403 BURGLARY -0.3008
-4.9403 BURN -0.2733
-4.9403 BURNED -0.3007
-4.9403 BURNER -0.2733
-4.9403 BURSTS -0.3010
-3.8263 BUS -0.2716
-4.9403 BUSES -0.3009
-4.3382 BUSH -0.2733
-3.5601 BUSINESS -0.2663
-4.6392 BUSINESSES -0.2981
-4.9403 BUSTER -0.3010
-4.0952 BUSY -0.2725
-3.0890 BUT -0.2701
-4.9403 BUTT -0.2993
-4.9403 BUTTER -0.3008
-4.6392 BUTTERFLY -0.2729
-4.9403 BUTTON -0.3007
-3.7642 BUY -0.2578
-4.9403 BUYING -0.3010
-4.9403 BUZZ -0.2990
-3.0482 BY -0.2483
-4.6392 BYE -0.2733
-4.9403 BYPASSING -0.2945
-4.9403 C -0.3005
-4.6392 CAB -0.2733
-4.6392 CABIN -0.2733
-4.9403 CABLE -0.3010
-4.9403 CABS -0.2996
-4.9403 CAESAR -0.3010
-4.9403 CAFE -0.2733
-4.3382 CAKE -0.2733
-4.9403 CALCULUS -0.2733
-4.9403 CALENDAR -0.2733
-3.7941 CALL -0.2540
-4.4631 CALLED -0.2664
-4.0372 CALLING -0.2674
-4.9403 CALLS -0.2995
-4.4631 CALM -0.2731
-4.9403 CALMING -0.3010
-4.9403 CAME -0.2961
-4.6392 CAMERA -0.2704
-4.9403 CAMPER -0.3010
-4.9403 CAMPFIRE -0.2733
-4.1621 CAMPING -0.2733
-2.6592 CAN -0.2480
-3.2327 CAN'T -0.2672
-4.4631 CANADA -0.2733
-4.9403 CANADIAN -0.2733
-4.9403 CANCEL -0.2733
-4.9403 CANCELED -0.2733
-4.9403 CANCUN -0.2733
-4.9403 CANNED -0.3010
-4.6392 CANNOT -0.3009
-4.9403 CANYON -0.2733
-4.9403 CAP -0.2733
-4.6392 CAPACITY -0.2711
-4.6392 CAPITAL -0.2733
-4.9403 CAPPUCCINO -0.2733
-4.9403 CAPSIZED -0.2998
-4.9403 CAPSULE -0.3009
-4.9403 CAPSULES -0.3010
-4.9403 CAPTAIN -0.2733
-4.9403 CAPTIVE -0.3010
-3.7361 CAR -0.2668
-4.9403 CAR'S -0.3010
-3.8611 CARD -0.2732
-4.9403 CARDS -0.2733
-4.0372 CARE -0.2689
-4.2413 CAREER -0.3008
-4.4631 CAREFUL -0.2683
-4.6392 CAREFULLY -0.2733
-4.6392 CARES -0.2999
-3.8989 CARGO -0.2692
-4.9403 CARING -0.3010
-4.9403 CARPENTER -0.2733
-4.6392 CARPET -0.2733
-4.9403 CARRIER -0.2733
-4.6392 CARROTS -0.2717
-4.4631 CARRY -0.2995
-3.8611 CARS -0.2696
-4.9403 CARTON -0.2990
-4.9403 CARTOONS -0.2733
-4.9403 CARTRIDGE -0.2733
-4.9403 CASCADING -0.3010
-3.9860 CASE -0.2618
-4.9403 CASEY -0.2733
-4.3382 CASH -0.2730
-4.9403 CASHIER -0.2733
-4.9403 CASHMERE -0.2733
-4.9403 CASS -0.2733
-4.6392 CASUAL -0.2733
-4.4631 CAT -0.2733
-4.9403 CAT'S -0.3003
-4.6392 CATASTROPHES -0.2733
-4.2413 CATCH -0.2917
-4.9403 CATCHING -0.3006
-4.9403 CATCHY -0.2733
-4.9403 CATERS -0.2961
-4.9403 CATS -0.2733
-4.9403 CAULFIELD -0.2733
-4.4631 CAUSE -0.3005
-4.6392 CAUSED -0.2897
-4.6392 CAUSES -0.2728
-4.9403 CAUTION -0.3010
-4.9403 CELEBRATE -0.2997
-4.9403 CELEBRATING -0.3007
-4.3382 CELL -0.2733
-4.9403 CELLAR -0.2733
-4.9403 CELLO -0.2733
-4.4631 CELLPHONE -0.2732
-4.9403 CELSIUS -0.2733
-4.3382 CENTER -0.2733
-4.9403 CENTIMETER -0.2733
-4.6392 CENTRAL -0.3010
-4.6392 CENTS -0.2733
-4.6392 CENTURY -0.2733
-3.9403 CEO -0.2698
-4.2413 CERTAIN -0.2620
-4.3382 CERTAINLY -0.2986
-4.9403 CERTIFICATE -0.3010
-4.6392 CFO -0.2704
-4.4631 CHAIR -0.2733
-4.9403 CHAIRMAN -0.2982
-4.6392 CHAIRS -0.2998
-4.6392 CHALLENGE -0.2996
-4.9403 CHALLENGED -0.2733
-4.9403 CHALLENGES -0.2733
-4.2413 CHALLENGING -0.2724
-4.9403 CHAMOMILE -0.3010
-4.9403 CHAMPIONED -0.3009
-4.1621 CHANCE -0.2927
-4.9403 CHANCES -0.2733
-4.6392 CHANDELIERS -0.2730
-3.7642 CHANGE -0.2538
-4.9403 CHANGED -0.2998
-4.0952 CHANGES -0.2719
-4.4631 CHANGING -0.2944
-4.9403 CHANNEL -0.3005
-4.4631 CHANNELS -0.2665
-4.6392 CHARACTER -0.2965
-4.9403 CHARACTERISTIC -0.2733
-4.9403 CHARADES -0.2733
-4.1621 CHARGE -0.2691
-4.9403 CHARGED -0.3003
-4.9403 CHARGING -0.3010
-4.9403 CHARISMA -0.2995
-4.6392 CHARITY -0.2967
-4.4631 CHARLIE -0.2732
-3.7361 CHART -0.2691
-4.9403 CHART'S -0.3010
-4.9403 CHARTS -0.3008
-4.6392 CHASE -0.2664
-4.9403 CHASES -0.3008
-4.9403 CHAT -0.3004
-4.9403 CHEAP -0.3010
-4.9403 CHEAPER -0.3009
-4.9403 CHEAPEST -0.3010
-3.5785 CHECK -0.2529
-4.6392 CHECKED -0.2933
-4.6392 CHECKERS -0.2982
-4.3382 CHECKING -0.2985
-4.9403 CHEEKS -0.2733
-4.6392 CHEERS -0.2733
-4.3382 CHEESE -0.2701
-4.9403 CHEESECAKE -0.2733
-4.9403 CHEETAH -0.2733
-4.9403 CHEETAHS -0.2996
-4.9403 CHEF -0.3010
-4.9403 CHEF'S -0.3010
-4.6392 CHEMICALS -0.2723
-4.9403 CHEMISTRY -0.2733
-4.9403 CHENG -0.3010
-4.3382 CHESS -0.2711
-4.9403 CHEST -0.2990
-4.9403 CHICAGO -0.3010
-4.1621 CHICKEN -0.2680
-4.6392 CHIEF -0.3010
-4.3382 CHILD -0.2730
-4.3382 CHILDREN -0.2680
-4.9403 CHILDREN'S -0.3010
-4.9403 CHIN -0.2733
-4.6392 CHINA -0.2730
-4.1621 CHINESE -0.2731
-4.9403 CHIPS -0.2733
-4.9403 CHLOE -0.3010
-4.2413 CHOCOLATE -0.2722
-4.6392 CHOICE -0.2720
-4.4631 CHOICES -0.2731
-4.3382 CHOOSE -0.2664
-4.9403 CHOOSING -0.3005
-4.6392 CIGARETTES -0.2733
-4.9403 CINEMA -0.2733
-4.9403 CIRCLES -0.2995
-4.9403 CIRCUMSTANCE -0.2990
-4.9403 CIRCUMSTANCES -0.3010
-4.9403 CIRCUS -0.2733
-4.2413 CITIES -0.2718
-4.9403 CITIZEN -0.2733
-4.9403 CITIZENS -0.2733
-3.8989 CITY -0.2670
-4.9403 CIVIL -0.3010
-4.4631 CLAIM -0.2731
-4.9403 CLAIMED -0.3000
-4.4631 CLAIMS -0.2720
-4.0952 CLARIFY -0.2875
-4.3382 CLASS -0.2731
-4.3382 CLASSES -0.2681
-4.9403 CLASSIC -0.2961
-4.3382 CLASSICAL -0.2732
-4.6392 CLAUSTROPHOBIC -0.2722
-4.9403 CLAW -0.3008
-4.1621 CLEAN -0.2698
-4.9403 CLEANED -0.3007
-4.9403 CLEANER -0.2733
-4.9403 CLEANEST -0.3010
-3.9403 CLEAR -0.2690
-4.3382 CLEARLY -0.2644
-4.9403 CLERK -0.2733
-4.9403 CLEVER -0.2733
-4.9403 CLICHES -0.2996
-4.6392 CLIENT -0.2981
-4.3382 CLIENTS -0.2733
-4.9403 CLIMATE -0.3010
-4.9403 CLIMBED -0.2961
-4.6392 CLIMBING -0.2733
-4.6392 CLIVE -0.3000
-4.6392 CLOCK -0.2727
-4.3382 CLOSE -0.2948
-4.9403 CLOSED -0.3010
-4.9403 CLOSER -0.3009
-4.9403 CLOSEST -0.3010
-4.9403 CLOSET -0.2733
-4.2413 CLOTHES -0.2733
-4.2413 CLOTHING -0.2703
-4.9403 CLOUD -0.2733
-4.9403 CLOUDLIFE'S -0.3006
-4.6392 CLUB -0.2733
-4.9403 CLUE -0.3007
-4.9403 CLUTTER -0.2971
-4.9403 CO -0.3005
-4.9403 COACH -0.2733
-4.6392 COAL -0.2733
-4.4631 COAST -0.2731
-4.9403 COB -0.2733
-4.4631 COCAINE -0.2732
-4.9403 COCKROACH -0.2733
-4.4631 COCKTAIL -0.2730
-4.9403 COCKY -0.3004
-4.2413 CODE -0.2692
-3.9860 COFFEE -0.2709
-4.9403 COINCIDENCE -0.2733
-4.9403 COINS -0.2733
-4.1621 COLD -0.2717
-4.9403 COLDEST -0.3010
-4.9403 COLIN -0.3010
-4.1621 COLLEAGUE -0.2624
-4.3382 COLLEAGUES -0.2712
-4.9403 COLLECT -0.3010
-4.9403 COLLECTED -0.2997
-4.4631 COLLECTING -0.2733
-4.9403 COLLECTION -0.2733
-4.4631 COLLEGE -0.2733
-4.9403 COLLISION -0.3003
-4.0952 COLOR -0.2666
-4.9403 COM -0.2733
-4.9403 COMBINATION -0.3003
-4.9403 COMBINE -0.2961
-3.4088 COME -0.2625
-4.6392 COMEDY -0.2721
-3.9403 COMES -0.2942
-4.9403 COMFORT -0.2995
-4.3382 COMFORTABLE -0.2724
-4.9403 COMIC -0.3010
-3.9403 COMING -0.2625
-4.9403 COMMA -0.2733
-4.9403 COMMANDER -0.2733
-4.6392 COMMENT -0.2962
-4.9403 COMMENTARY -0.3010
-4.4631 COMMERCIAL -0.3008
-4.6392 COMMIT -0.2733
-4.6392 COMMITMENT -0.2681
-4.6392 COMMITTED -0.2989
-4.9403 COMMODITY -0.3010
-4.0952 COMMON -0.2666
-4.9403 COMMUNALLY -0.2733
-4.4631 COMMUNICATE -0.2726
-4.4631 COMMUNICATION -0.2732
-4.6392 COMMUNICATIONS -0.2732
-4.2413 COMMUNITY -0.2704
-4.9403 COMMUTE -0.3009
-4.9403 COMPACT -0.3010
-4.0372 COMPANIES -0.2681
-3.3382 COMPANY -0.2620
-4.0952 COMPANY'S -0.3004
-4.4631 COMPARED -0.2961
-4.9403 COMPARING -0.3010
-4.6392 COMPARISON -0.3010
-4.9403 COMPARTMENT -0.2733
-4.9403 COMPELLING -0.2733
-4.2413 COMPETITION -0.2703
-4.2413 COMPETITIVE -0.2716
-4.9403 COMPETITIVENESS -0.2733
-4.9403 COMPETITORS -0.2733
-4.9403 COMPILED -0.2963
-4.9403 COMPLAIN -0.3003
-4.9403 COMPLAINT -0.2945
-4.9403 COMPLEMENTARY -0.2733
-4.2413 COMPLETE -0.2733
-4.6392 COMPLETED -0.2991
-4.0952 COMPLETELY -0.3006
-4.4631 COMPLICATED -0.2733
-4.9403 COMPLIMENT -0.3009
-4.3382 COMPROMISE -0.2998
-4.9403 COMPROMISES -0.2733
-3.5601 COMPUTER -0.2691
-4.3382 COMPUTERS -0.2713
-4.6392 CON -0.2982
-4.9403 CONCENTRATE -0.2733
-4.2413 CONCERN -0.2733
-4.6392 CONCERNED -0.2929
-4.9403 CONCERNING -0.2999
-4.1621 CONCERNS -0.2726
-4.4631 CONCERT -0.2733
-4.6392 CONCLUDE -0.2943
-4.6392 CONCLUSION -0.2718
-4.6392 CONCRETE -0.3010
-4.9403 CONDITIONING -0.2733
-4.9403 CONDITIONS -0.2996
-4.9403 CONDOLENCES -0.2961
-4.2413 CONFERENCE -0.2717
-4.9403 CONFERENCES -0.3008
-4.9403 CONFIDENT -0.2995
-4.0952 CONFIDENTIAL -0.2690
-4.9403 CONFINED -0.3010
-4.0372 CONFIRM -0.2864
-4.9403 CONFIRMED -0.2995
-4.9403 CONFLICT -0.2990
-4.9403 CONFUSED -0.3004
-4.6392 CONGRATULATIONS -0.2722
-4.4631 CONNECT -0.2945
-4.9403 CONNECTING -0.2963
-4.9403 CONNECTION -0.2733
-4.9403 CONNECTIONS -0.2995
-4.9403 CONNOTATION -0.2997
-4.9403 CONS -0.2990
-4.9403 CONSEQUENCE -0.2990
-4.9403 CONSEQUENCES -0.2733
-4.3382 CONSEQUENTLY -0.3002
-4.9403 CONSERVATIVE -0.3010
-4.9403 CONSERVE -0.2945
-4.0952 CONSIDER -0.2896
-4.6392 CONSIDERED -0.2993
-4.9403 CONSISTED -0.2990
-4.9403 CONSISTENTLY -0.3005
-4.9403 CONSOLE -0.2733
-4.9403 CONSOLIDATE -0.2945
-4.6392 CONSTANT -0.3010
-4.9403 CONSTRUCTED -0.2993
-4.9403 CONSUMER -0.3010
-4.4631 CONTACT -0.2721
-4.9403 CONTACTED -0.2963
-4.9403 CONTACTS -0.2733
-4.9403 CONTAIN -0.3010
-4.6392 CONTAINER -0.3010
-4.9403 CONTAINS -0.3005
-4.9403 CONTEMPORARY -0.3010
-4.6392 CONTENTION -0.2995
-4.1621 CONTINUE -0.2669
-4.6392 CONTINUES -0.2961
-4.9403 CONTORTIONIST -0.2733
-4.0952 CONTRACT -0.2657
-4.9403 CONTRIBUTION -0.2982
-4.4631 CONTROL -0.2711
-4.9403 CONTROLLER -0.3010
-4.9403 CONTROLLING -0.3010
-4.9403 CONTROLS -0.2945
-4.9403 CONTROVERSIAL -0.3007
-4.9403 CONVENIENCE -0.2733
-4.6392 CONVENIENT -0.2995
-4.6392 CONVERSATION -0.2728
-4.9403 CONVEYOR -0.3010
-4.9403 CONVEYS -0.2963
-4.9403 CONVICTED -0.3003
-4.9403 CONVICTION -0.3003
-4.9403 CONVINCE -0.2945
-4.6392 CONVINCED -0.2999
-4.9403 CONVINCING -0.3006
-4.9403 COO -0.2733
-4.6392 COOK -0.2717
-4.9403 COOKED -0.3010
-4.9403 COOKIE -0.3010
-4.9403 COOKIES -0.2995
-4.9403 COOKING -0.2733
-4.4631 COOL -0.2726
-4.9403 COOLER -0.2993
-4.9403 COOPER -0.2733
-4.9403 COOPERATING -0.3003
-4.9403 COORDINATION -0.3010
-4.9403 COORDINATOR -0.2733
-4.3382 COPY -0.2989
-4.9403 CORAL -0.3010
-4.6392 CORE -0.2990
-4.4631 CORN -0.2994
-4.3382 CORNER -0.2711
-4.9403 CORPORAL -0.2733
-4.2413 CORPORATE -0.3009
-4.9403 CORPORATION -0.3010
-4.6392 CORPS -0.2982
-4.2413 CORRECT -0.2720
-4.9403 CORRECTING -0.3002
-4.1621 CORRECTLY -0.2942
-4.9403 CORRUPTION -0.2733
-4.6392 CORY -0.3009
-3.8989 COST -0.2636
-4.0372 COSTS -0.2717
-4.9403 COSTUME -0.2974
-4.4631 COSTUMES -0.2711
-4.9403 COTTAGE -0.3010
-4.1621 COTTON -0.2713
-4.3382 COUCH -0.2726
-4.3382 COUGH -0.2717
-2.9812 COULD -0.2819
-4.0372 COULDN'T -0.2988
-4.9403 COUNTERFEITING -0.3010
-4.6392 COUNTEROFFER -0.2982
-4.2413 COUNTRIES -0.2733
-3.9403 COUNTRY -0.2716
-4.4631 COUPLE -0.2989
-4.3382 COURSE -0.2635
-4.9403 COURSES -0.2733
-4.6392 COURTROOM -0.2681
-4.9403 COURTYARD -0.2733
-4.9403 COUSINS -0.3009
-4.4631 COVER -0.2984
-4.9403 COVERAGE -0.3009
-4.6392 COVERED -0.2999
-4.6392 CPU -0.2732
-4.9403 CRACK -0.3010
-4.9403 CRANE -0.2733
-4.9403 CRASHED -0.2995
-4.9403 CRASHES -0.2733
-4.1621 CRAZY -0.2725
-4.9403 CREAKING -0.2733
-4.6392 CREAM -0.2721
-3.9403 CREATE -0.2956
-4.4631 CREATED -0.2896
-4.6392 CREATES -0.3006
-4.9403 CREATING -0.2963
-4.2413 CREATIVE -0.2732
-4.4631 CREATIVITY -0.2693
-4.0952 CREDIT -0.2733
-4.9403 CREME -0.3010
-4.3382 CREW -0.3009
-3.9403 CRIME -0.2692
-4.9403 CRIMES -0.3010
-4.0952 CRITICAL -0.2663
-4.4631 CRITICIZE -0.2990
-4.9403 CRITICIZING -0.3006
-4.9403 CRITICS -0.3009
-4.6392 CROSS -0.3009
-4.6392 CROSSING -0.2933
-4.9403 CROWDED -0.2733
-4.4631 CRUCIAL -0.2728
-4.4631 CRUDE -0.3010
-4.9403 CRUISE -0.3010
-4.9403 CRUISES -0.3010
-4.9403 CRUMP -0.2995
-4.6392 CSR -0.2999
-4.9403 CUISINE -0.2733
-4.2413 CULTURE -0.2704
-4.9403 CUP -0.2990
-4.9403 CUPS -0.2963
-4.9403 CURIOSITY -0.2733
-4.9403 CURIOUS -0.3007
-4.9403 CURL -0.3006
-4.9403 CURLY -0.3010
-4.9403 CURRENCIES -0.2997
-4.4631 CURRENCY -0.2995
-4.2413 CURRENT -0.2720
-4.6392 CURRENTLY -0.3009
-4.9403 CURTIS -0.3000
-4.9403 CUSHIONS -0.2733
-4.4631 CUSTOMER -0.3010
-4.0372 CUSTOMERS -0.2684
-4.9403 CUSTOMERS' -0.3010
-4.9403 CUSTOMS -0.3006
-4.0952 CUT -0.2606
-4.9403 CUTBACKS -0.2733
-4.9403 CUTE -0.2733
-4.2413 CUTS -0.2712
-4.6392 CUTTING -0.2993
-4.4631 CYCLING -0.2727
-4.9403 CYCLONE -0.2733
-4.9403 CYNICAL -0.3010
-4.6392 CYNTHIA -0.3008
-4.6392 DAD -0.3010
-4.9403 DAI -0.3010
-4.3382 DAILY -0.2714
-4.9403 DAIRY -0.3010
-4.3382 DAMAGE -0.2733
-4.9403 DAN -0.2999
-4.9403 DAN'S -0.3010
-4.6392 DANCING -0.2733
-4.3382 DANGER -0.2711
-4.2413 DANGEROUS -0.2716
-4.9403 DANGERS -0.2990
-4.9403 DARING -0.2733
-4.6392 DARK -0.3010
-4.9403 DASHBOARD -0.3010
-4.9403 DASHING -0.3010
-4.1621 DATA -0.2684
-4.6392 DATABASE -0.2733
-4.0372 DATE -0.2702
-4.6392 DATING -0.2704
-4.9403 DAUGHTER -0.2733
-4.6392 DAVE -0.2997
-3.4218 DAY -0.2625
-3.7361 DAYS -0.2643
-4.4631 DEAD -0.3006
-4.4631 DEADLINE -0.2733
-4.9403 DEADLINE'S -0.3002
-4.1621 DEADLINES -0.2686
-4.9403 DEADLOCK -0.2733
-4.9403 DEADLY -0.3010
-3.5601 DEAL -0.2619
-4.6392 DEATH -0.2733
-4.9403 DEBILITATING -0.3010
-4.4631 DEBT -0.2732
-4.6392 DEBTS -0.2970
-4.6392 DECEMBER -0.2733
-4.9403 DECEPTIVE -0.2733
-4.2413 DECIDE -0.2714
-4.0952 DECIDED -0.2948
-4.9403 DECIDING -0.2733
-3.8989 DECISION -0.2665
-4.6392 DECISIONS -0.2733
-4.9403 DECLINE -0.2733
-4.9403 DECLINED -0.2733
-4.9403 DECOMPRESS -0.2733
-4.9403 DECORATING -0.2733
-4.9403 DECREASE -0.2945
-4.4631 DECREASED -0.3006
-4.9403 DECREASES -0.2733
-4.6392 DECREASING -0.2730
-4.9403 DEDUCTED -0.3009
-4.9403 DEDUCTIBLE -0.2982
-4.4631 DEEP -0.2715
-4.9403 DEEPEST -0.3010
-4.9403 DEER -0.2733
-4.9403 DEFENDANT -0.2982
-4.9403 DEFINE -0.3007
-4.6392 DEFINING -0.3000
-4.1621 DEFINITELY -0.2970
-4.3382 DEGREE -0.2715
-3.9860 DEGREES -0.2717
-4.0372 DELAY -0.2648
-4.6392 DELAYED -0.2733
-4.9403 DELIBERATE -0.2733
-4.2413 DELICIOUS -0.2733
-4.9403 DELIGHTED -0.2733
-4.4631 DELIVER -0.2994
-4.3382 DELIVERED -0.2720
-3.9860 DELIVERY -0.2727
-4.9403 DELTA -0.3010
-4.9403 DELUSIONS -0.2733
-4.4631 DEMAND -0.2720
-4.9403 DEMANDED -0.3010
-4.6392 DEMANDING -0.2733
-4.9403 DEMARCO -0.2733
-4.9403 DEMOGRAPHIC -0.3010
-4.9403 DEMONSTRATED -0.3005
-4.6392 DEMONSTRATION -0.3003
-4.9403 DEMOTIVATE -0.2945
-4.6392 DENIED -0.2994
-4.9403 DEPART -0.3004
-3.8611 DEPARTMENT -0.2721
-4.9403 DEPARTS -0.3007
-4.6392 DEPEND -0.2998
-4.6392 DEPENDABLE -0.2733
-4.9403 DEPENDING -0.2998
-4.6392 DEPENDS -0.2996
-4.9403 DEPOSIT -0.3010
-4.9403 DEPRESS -0.2945
-4.9403 DEPRESSED -0.2733
-4.9403 DEPRESSION -0.2995
-4.6392 DEPTH -0.2733
-4.9403 DERELICT -0.3010
-4.9403 DERIVED -0.3007
-4.4631 DESCRIBE -0.2992
-4.4631 DESERT -0.2733
-4.0372 DESIGN -0.2674
-4.9403 DESIGNED -0.3006
-4.9403 DESIGNER -0.2733
-4.9403 DESIGNS -0.3009
-4.9403 DESIRE -0.2961
-4.0372 DESK -0.2684
-4.9403 DESKS -0.2733
-4.6392 DESKTOP -0.2732
-4.9403 DESPAIR -0.2733
-4.6392 DESPITE -0.2933
-4.9403 DESSERTS -0.2733
-4.9403 DESTINATION -0.2733
-4.4631 DESTROYED -0.2992
-4.9403 DESTROYING -0.2945
-4.2413 DETAILS -0.2725
-4.9403 DETECTIVE -0.3009
-4.9403 DETERMINED -0.2733
-4.9403 DEVELOP -0.3006
-4.9403 DEVELOPER -0.2993
-4.9403 DEVELOPING -0.3009
-4.2413 DEVELOPMENT -0.2704
-4.9403 DEVELOPMENTS -0.2733
-4.6392 DEVICE -0.2684
-4.6392 DEVICES -0.2721
-4.6392 DEVIL'S -0.3010
-4.9403 DIAMOND -0.3010
-4.6392 DIARRHEA -0.2733
-4.1621 DICE -0.2673
-3.3275 DID -0.2762
-3.5253 DIDN'T -0.2662
-4.6392 DIED -0.2991
-4.9403 DIESEL -0.3010
-4.6392 DIFFER -0.2993
-4.3382 DIFFERENCE -0.2711
-4.9403 DIFFERENCES -0.2733
-3.9860 DIFFERENT -0.2723
-4.9403 DIFFERENTLY -0.3000
-3.8989 DIFFICULT -0.2675
-4.9403 DIFFICULTIES -0.2996
-4.9403 DIFFICULTY -0.3009
-4.3382 DIGITAL -0.3009
-4.9403 DILIGENTLY -0.2733
-4.9403 DIMENSIONAL -0.3010
-4.9403 DIMINISHED -0.2733
-4.9403 DINING -0.3009
-4.0952 DINNER -0.2732
-4.9403 DINNERS -0.3004
-4.9403 DIRE -0.3010
-4.4631 DIRECT -0.2999
-4.9403 DIRECTIONAL -0.3010
-4.9403 DIRECTLY -0.2961
-4.4631 DIRECTOR -0.2681
-4.2413 DIRECTORS -0.2695
-4.6392 DISADVANTAGE -0.2982
-4.9403 DISADVANTAGES -0.2733
-4.3382 DISAGREE -0.2721
-4.9403 DISAPPEARED -0.2733
-4.6392 DISASTER -0.2733
-4.9403 DISASTROUS -0.3010
-4.9403 DISC -0.3010
-4.2413 DISCOUNT -0.2681
-4.6392 DISCOVERED -0.2664
-4.4631 DISCUSS -0.2733
-4.4631 DISCUSSED -0.2979
-4.9403 DISCUSSING -0.2945
-4.6392 DISCUSSION -0.2963
-4.9403 DISEASES -0.2996
-4.9403 DISGRUNTLED -0.3010
-4.9403 DISGUSTING -0.2733
-4.9403 DISGUSTS -0.3002
-4.9403 DISH -0.2733
-4.2413 DISHES -0.2706
-4.9403 DISHONEST -0.2733
-4.9403 DISHWASHER -0.2733
-4.9403 DISILLUSIONED -0.2733
-4.6392 DISK -0.2727
-4.9403 DISKS -0.2993
-4.4631 DISORGANIZED -0.2733
-4.9403 DISTANCE -0.2982
-4.9403 DISTINCT -0.3010
-4.9403 DISTRIBUTION -0.3010
-4.9403 DISTRIBUTORS -0.2733
-4.9403 DISTURB -0.2971
-4.9403 DIVERSE -0.3010
-4.9403 DIVERSIFY -0.2995
-4.9403 DIVERSITY -0.2733
-4.4631 DIVIDED -0.3009
-4.9403 DIVING -0.2733
-4.9403 DIVISIVE -0.3010
-4.6392 DIVORCED -0.2722
-4.6392 DIZZY -0.2733
-4.9403 DJS -0.2996
-4.9403 DNA -0.2733
-2.6160 DO -0.2355
-3.7098 DOCTOR -0.2727
-4.9403 DOCTORATE -0.2733
-4.9403 DOCTORS -0.2733
-4.3382 DOCUMENT -0.2704
-4.4631 DOCUMENTARY -0.2733
-4.6392 DOCUMENTS -0.2733
-3.3492 DOES -0.2800
-3.6615 DOESN'T -0.2969
-4.3382 DOG -0.2733
-4.9403 DOG'S -0.3006
-4.9403 DOGS -0.2997
-3.5785 DOING -0.2605
-4.6392 DOLLAR -0.2733
-3.5978 DOLLARS -0.2602
-4.6392 DOLPHIN -0.2733
-4.9403 DOLPHINS -0.2996
-4.9403 DOME -0.2733
-4.9403 DOMESTICALLY -0.2733
-2.8872 DON'T -0.2854
-4.9403 DONATE -0.3005
-4.9403 DONATED -0.2733
-4.9403 DONATIONS -0.2997
-3.8263 DONE -0.2603
-4.6392 DONNA -0.2704
-4.9403 DOOMSDAY -0.3010
-4.6392 DOOR -0.2711
-4.9403 DOORS -0.2997
-4.9403 DOSAGE -0.2982
-4.9403 DOSE -0.3010
-4.9403 DOSES -0.2733
-4.1621 DOUBLE -0.2728
-4.3382 DOUBT -0.2977
-4.3382 DOUBTS -0.2723
-4.6392 DOW -0.3010
-3.4779 DOWN -0.2502
-4.9403 DOWNGRADED -0.2733
-4.6392 DOWNLOAD -0.2944
-4.6392 DOWNLOADING -0.2981
-4.9403 DOWNSTREAM -0.3010
-4.9403 DOWNTIME -0.3006
-4.9403 DOWNTOWN -0.2733
-4.9403 DOZEN -0.3010
-4.9403 DRAFT -0.2982
-4.9403 DRAINPIPE -0.2733
-4.9403 DRAMA -0.2733
-4.6392 DRAMATIC -0.2733
-4.3382 DRAMATICALLY -0.2733
-4.9403 DRANK -0.2963
-4.9403 DRASTICALLY -0.3010
-4.0952 DRAW -0.2994
-4.6392 DRAWBACK -0.2982
-4.9403 DRAWBACKS -0.2733
-4.9403 DRAWERS -0.2733
-4.6392 DRAWING -0.2733
-4.0372 DREAM -0.2958
-4.6392 DREAMS -0.2717
-3.9403 DRESS -0.2716
-4.6392 DRESSING -0.2733
-4.9403 DRILLING -0.2733
-4.9403 DRILLS -0.3009
-3.8989 DRINK -0.2679
-4.6392 DRINKING -0.3010
-4.1621 DRINKS -0.2715
-3.8611 DRIVE -0.2616
-4.6392 DRIVEN -0.2729
-4.9403 DRIVER -0.3010
-4.9403 DRIVER'S -0.3010
-4.9403 DRIVERS -0.2733
-4.9403 DRIVES -0.3002
-4.9403 DRIVEWAY -0.2733
-4.1621 DRIVING -0.2693
-4.6392 DROP -0.2979
-4.4631 DROPPED -0.3004
-4.9403 DROPS -0.2997
-4.6392 DROUGHT -0.2733
-4.6392 DROVE -0.2959
-4.9403 DROWNED -0.3010
-4.0372 DRUG -0.2731
-4.6392 DRUGS -0.2715
-4.6392 DRUMS -0.2733
-4.4631 DRY -0.2998
-4.0952 DUE -0.2961
-4.9403 DULL -0.3006
-4.9403 DUMP -0.3010
-4.9403 DUNCAN -0.2974
-4.4631 DURABLE -0.2717
-4.0372 DURING -0.2945
-4.9403 DUSTBIN -0.2733
-4.9403 DUTIES -0.2733
-4.9403 DVD -0.2733
-4.4631 E -0.3010
-3.6615 EACH -0.2970
-4.9403 EAR -0.2733
-4.3382 EARLIER -0.2718
-4.3382 EARLY -0.2732
-4.4631 EARN -0.2961
-4.9403 EARNS -0.3010
-4.3382 EARTH -0.2726
-4.1621 EARTHQUAKE -0.2721
-4.4631 EASIER -0.2952
-4.6392 EASILY -0.2729
-4.6392 EAST -0.2733
-3.9860 EASY -0.2674
-3.7941 EAT -0.2646
-4.1621 EATING -0.2979
-4.9403 EATS -0.3006
-4.9403 EBB -0.2995
-4.4631 ECHO -0.2721
-4.9403 ECO -0.3010
-4.6392 ECONOMIC -0.3010
-4.1621 ECONOMY -0.2690
-4.9403 ECOTOURISM -0.2733
-4.6392 ECSTASY -0.2733
-4.9403 EDGED -0.3010
-4.9403 EDINBURGH -0.3010
-4.9403 EDITOR -0.3009
-4.9403 EDITORS -0.3002
-4.4631 EDUCATION -0.2704
-4.9403 EDWARD -0.3010
-4.4631 EFFECT -0.2990
-4.2413 EFFECTIVE -0.2999
-4.9403 EFFECTIVELY -0.3010
-4.4631 EFFECTS -0.2733
-4.6392 EFFICIENCY -0.2684
-4.6392 EFFICIENT -0.2994
-4.9403 EFFICIENTLY -0.2733
-4.6392 EFFORT -0.2711
-4.9403 EGALITARIAN -0.2733
-4.9403 EGALITARIANISM -0.2733
-4.9403 EGG -0.2733
-4.9403 EGGPLANT -0.3010
-4.9403 EGGS -0.2993
-3.7098 EIGHT -0.2712
-4.9403 EIGHTEEN -0.2733
-4.0952 EIGHTY -0.3003
-4.9403 EIGTH -0.2733
-4.2413 EITHER -0.2731
-4.9403 ELBOW -0.2733
-4.9403 ELDERLY -0.3010
-4.9403 ELECTION -0.3009
-4.6392 ELECTRIC -0.3009
-4.6392 ELECTRICAL -0.3010
-4.9403 ELECTRICIAN -0.2733
-4.2413 ELECTRICITY -0.2692
-4.6392 ELECTRONICS -0.3004
-4.9403 ELEGANT -0.3010
-4.6392 ELEMENT -0.2972
-4.9403 ELEMENTARY -0.3010
-4.3382 ELEPHANT -0.2703
-4.9403 ELEPHANTS -0.3010
-4.6392 ELEVATOR -0.2733
-4.6392 ELEVEN -0.2733
-4.9403 ELIGIBLE -0.2961
-4.9403 ELIMINATED -0.2733
-4.9403 ELLA -0.3008
-4.9403 ELLIPSIS -0.2733
-3.9860 ELSE -0.2599
-4.6392 EMAIL -0.3005
-4.4631 EMAILS -0.2731
-4.9403 EMBARGOES -0.2996
-4.4631 EMBARRASSED -0.2733
-4.9403 EMBARRASSMENT -0.2733
-4.3382 EMERGENCY -0.3010
-4.9403 EMERGES -0.3007
-4.9403 EMMA' -0.3005
-4.9403 EMOTIONAL -0.3010
-4.4631 EMPATHY -0.2650
-4.9403 EMPHASIS -0.2998
-4.9403 EMPHASIZE -0.3002
-4.9403 EMPHASIZED -0.2945
-4.9403 EMPLOYED -0.3007
-4.0952 EMPLOYEE -0.2693
-4.0952 EMPLOYEES -0.2708
-4.9403 EMPLOYEES' -0.3009
-4.6392 ENCOURAGED -0.2961
-3.8989 END -0.2706
-4.2413 ENDANGERED -0.2993
-4.9403 ENDED -0.2733
-4.9403 ENDING -0.3006
-4.9403 ENDLESS -0.2733
-4.9403 ENDORSE -0.3006
-4.9403 ENDS -0.3009
-4.9403 ENEMIES -0.3006
-3.8989 ENERGY -0.2687
-4.6392 ENGAGING -0.2732
-4.1621 ENGINE -0.3003
-4.4631 ENGINEER -0.2733
-4.9403 ENGINEER'S -0.3009
-4.6392 ENGINEERING -0.3000
-4.9403 ENGINEERS -0.2733
-3.9403 ENGLISH -0.2635
-4.9403 ENGROSSED -0.2993
-4.9403 ENHANCING -0.3010
-3.9403 ENJOY -0.2937
-4.6392 ENJOYABLE -0.2729
-4.3382 ENJOYED -0.2923
-4.4631 ENJOYS -0.2939
-4.9403 ENLIGHTENMENT -0.2998
-4.9403 ENORMOUS -0.3010
-3.6392 ENOUGH -0.2598
-4.9403 ENSURE -0.2999
-4.9403 ENTER -0.2945
-4.9403 ENTERTAINING -0.2733
-4.6392 ENTERTAINMENT -0.2704
-4.9403 ENTIRELY -0.3010
-4.9403 ENTRANCE -0.2733
-4.9403 ENTREPRENEURIAL -0.3010
-4.9403 ENTRY'S -0.3010
-4.9403 ENVELOPE -0.2733
-4.0952 ENVIRONMENT -0.2703
-4.9403 ENVIRONMENTAL -0.3010
-4.9403 ENVIRONMENTALLY -0.3010
-4.6392 EQUAL -0.3006
-4.0952 EQUIPMENT -0.2673
-4.9403 EQUIVALENT -0.2982
-4.9403 ERASE -0.3010
-4.6392 ERGONOMIC -0.3010
-4.3382 ERIC -0.2694
-4.9403 ERRORS -0.3010
-4.6392 ESPECIALLY -0.3001
-4.9403 ESPIONAGE -0.2982
-4.9403 ESPRESSO -0.2733
-4.6392 ESSENTIAL -0.2995
-4.9403 ESSENTIALLY -0.2994
-4.6392 ESTABLISH -0.2945
-4.9403 ESTABLISHED -0.3009
-4.6392 ESTATE -0.2733
-4.9403 ETA -0.2733
-4.9403 ETHANOL -0.2982
-4.6392 ETHICAL -0.2717
-4.6392 ETHICS -0.2717
-4.9403 ETIQUETTE -0.3010
-4.6392 EU -0.3009
-4.6392 EURO -0.2978
-4.9403 EUROPE -0.2733
-4.9403 EUROPEAN -0.3010
-4.9403 EVACUATED -0.2733
-4.9403 EVACUATION -0.3010
-4.9403 EVALUATED -0.3006
-4.9403 EVALUATION -0.2733
-4.9403 EVAN -0.3007
-3.8611 EVEN -0.2903
-4.0952 EVENING -0.2694
-4.1621 EVENT -0.2948
-4.9403 EVENTS -0.3002
-3.7941 EVER -0.2713
-3.4931 EVERY -0.2983
-4.4631 EVERYBODY -0.2732
-3.6180 EVERYONE -0.2634
-4.6392 EVERYONE'S -0.2998
-3.6392 EVERYTHING -0.2505
-4.3382 EVERYTHING'S -0.3000
-4.6392 EVIDENCE -0.2717
-4.9403 EVOLVING -0.3009
-4.9403 EXACT -0.3010
-3.8611 EXACTLY -0.2643
-4.9403 EXAGGERATED -0.2995
-4.2413 EXAMPLE -0.2597
-4.9403 EXAMS -0.2733
-4.9403 EXCAVATOR -0.2733
-4.9403 EXCEL -0.2733
-4.9403 EXCELLENCE -0.3009
-4.0952 EXCELLENT -0.2712
-4.9403 EXCEPT -0.2997
-4.3382 EXCHANGE -0.2663
-4.9403 EXCITED -0.2982
-4.3382 EXCITING -0.2729
-4.9403 EXCLAMATION -0.3010
-3.9403 EXCUSE -0.2989
-4.9403 EXECUTIVES -0.3010
-3.8989 EXERCISE -0.2709
-4.6392 EXERCISES -0.3010
-4.6392 EXERCISING -0.3006
-4.9403 EXHAUST -0.3010
-4.9403 EXHAUSTING -0.2733
-4.6392 EXHIBIT -0.2730
-4.9403 EXIST -0.2733
-4.6392 EXIT -0.2733
-4.9403 EXOTIC -0.3010
-4.9403 EXPAND -0.2998
-4.2413 EXPECT -0.2606
-4.9403 EXPECTATIONS -0.2990
-4.1621 EXPECTED -0.2679
-4.6392 EXPECTING -0.2955
-4.9403 EXPECTS -0.2963
-4.9403 EXPEDIENTLY -0.2733
-4.6392 EXPENDITURE -0.2733
-4.3382 EXPENSES -0.2689
-3.8611 EXPENSIVE -0.2671
-3.7642 EXPERIENCE -0.2674
-4.9403 EXPERIENCING -0.2963
-4.4631 EXPERT -0.2727
-4.6392 EXPERTISE -0.2704
-4.9403 EXPIRE -0.3009
-3.9403 EXPLAIN -0.2633
-4.4631 EXPLAINING -0.2986
-4.9403 EXPLORATION -0.2733
-4.4631 EXPLORE -0.2945
-4.4631 EXPLORER -0.2733
-4.6392 EXPLORING -0.2733
-4.6392 EXPLOSION -0.2998
-4.9403 EXPONENTIALLY -0.2733
-4.6392 EXPORT -0.2963
-4.9403 EXPORTED -0.3010
-4.9403 EXPORTS -0.2996
-4.9403 EXPRESS -0.3010
-4.9403 EXPRESSING -0.3010
-4.9403 EXPRESSION -0.2733
-4.9403 EXQUISITE -0.2733
-4.6392 EXTEND -0.2994
-4.9403 EXTENSION -0.2998
-4.9403 EXTENSIVE -0.3010
-4.4631 EXTENT -0.2960
-4.9403 EXTERIOR -0.2733
-4.9403 EXTERNAL -0.3010
-4.9403 EXTINCT -0.2733
-4.6392 EXTINCTION -0.2733
-4.3382 EXTINGUISHER -0.2733
-4.6392 EXTINGUISHERS -0.2732
-4.9403 EXTINGUISHING -0.3010
-4.6392 EXTRA -0.3009
-4.4631 EXTREME -0.3010
-4.9403 EXTREMELY -0.3010
-4.9403 EYE -0.3010
-3.9403 EYES -0.2664
-4.9403 FABLE -0.2733
-4.9403 FABLES -0.2733
-4.9403 FABRIC -0.3000
-4.0952 FACE -0.2728
-4.4631 FACED -0.3000
-4.9403 FACET -0.2990
-4.9403 FACILITIES -0.2971
-4.9403 FACILITY -0.2733
-4.3382 FACT -0.2944
-4.4631 FACTOR -0.2980
-4.9403 FACTORS -0.2733
-4.9403 FACTUAL -0.2733
-4.6392 FAIL -0.2929
-4.4631 FAILURE -0.2952
-4.6392 FAIR -0.2894
-4.9403 FAIRBANKS -0.3008
-4.3382 FAIRLY -0.2733
-4.9403 FAIRY -0.3010
-4.4631 FAKE -0.2720
-4.2413 FALL -0.2696
-4.9403 FALLEN -0.3006
-4.3382 FALLING -0.3004
-4.2413 FALLS -0.2713
-4.9403 FALSE -0.3010
-4.9403 FALTERED -0.2995
-4.9403 FAMILIAR -0.3003
-4.6392 FAMILIES -0.3003
-3.6850 FAMILY -0.2675
-4.9403 FAMILY'S -0.3009
-4.4631 FAMOUS -0.2733
-4.6392 FAN -0.2711
-4.3382 FANTASTIC -0.2692
-4.6392 FANTASY -0.2733
-3.6615 FAR -0.2612
-4.9403 FASCINATES -0.3002
-4.4631 FASCINATING -0.2733
-4.3382 FASHION -0.2728
-4.9403 FASHION'S -0.3006
-4.9403 FASHIONED -0.2974
-4.1621 FAST -0.2714
-4.6392 FASTER -0.3009
-4.6392 FASTEST -0.3008
-4.9403 FAT -0.2733
-4.9403 FATAL -0.2733
-4.9403 FATE -0.2733
-4.4631 FATHER -0.2733
-4.9403 FATIGUE -0.2995
-4.6392 FAVOR -0.2681
-4.0952 FAVORITE -0.3008
-4.2413 FEAR -0.2962
-4.6392 FEARED -0.2733
-4.9403 FEARS -0.2995
-4.9403 FEASIBLE -0.2733
-4.9403 FEATURE -0.2990
-4.6392 FEBRUARY -0.3008
-4.9403 FED -0.3006
-4.9403 FEDERAL -0.3010
-4.9403 FEE -0.2997
-4.9403 FEEDBACK -0.3001
-3.5423 FEEL -0.2564
-3.7361 FEELING -0.2662
-4.2413 FEELS -0.3006
-4.6392 FEET -0.2715
-4.1621 FELL -0.2978
-4.1621 FELT -0.2942
-4.9403 FEMINIST -0.2733
-4.9403 FENCE -0.2733
-4.3382 FENG -0.3010
-4.6392 FERRY -0.2733
-4.9403 FERVENT -0.3010
-4.2413 FESTIVAL -0.2702
-4.4631 FEVER -0.2717
-4.0372 FEW -0.3004
-4.9403 FI -0.2733
-4.9403 FIBER -0.2990
-4.2413 FICTION -0.2717
-4.9403 FIELD -0.3009
-4.9403 FIELDS -0.2733
-4.9403 FIERCE -0.2993
-4.4631 FIFE -0.2733
-3.7941 FIFTEEN -0.2722
-4.6392 FIFTEENTH -0.2733
-4.4631 FIFTH -0.3009
-3.6615 FIFTY -0.2723
-4.9403 FIGHT -0.3010
-4.9403 FIGHTER -0.3010
-4.9403 FIGHTING -0.3006
-4.4631 FIGURE -0.3004
-4.9403 FIGURES -0.2733
-4.6392 FILE -0.2733
-4.9403 FILES -0.2733
-4.2413 FILL -0.2876
-4.4631 FILLED -0.2891
-4.0952 FILM -0.2697
-4.3382 FILMS -0.2715
-4.9403 FILMSTAR -0.3010
-4.6392 FILTER -0.3010
-4.0372 FINAL -0.2727
-4.6392 FINALIZE -0.3006
-4.0372 FINALLY -0.2658
-4.6392 FINANCE -0.2997
-4.6392 FINANCES -0.2719
-4.4631 FINANCIAL -0.3009
-4.6392 FINANCIALLY -0.2733
-3.8263 FIND -0.2867
-4.9403 FINDS -0.3007
-4.0372 FINE -0.2691
-4.9403 FINEST -0.3010
-4.9403 FINGER -0.2733
-4.9403 FINGERS -0.2733
-4.1621 FINISH -0.2659
-4.4631 FINISHED -0.2663
-4.9403 FINNAIR -0.3010
-3.6615 FIRE -0.2697
-4.9403 FIRE'S -0.3010
-3.9860 FIRED -0.2716
-4.3382 FIREFIGHTER -0.2733
-4.6392 FIREFIGHTERS -0.2732
-4.9403 FIREPLACE -0.2733
-4.6392 FIREWORKS -0.2732
-4.3382 FIRM -0.2726
-4.9403 FIRMS -0.2733
-3.3492 FIRST -0.2571
-4.6392 FISH -0.2992
-4.6392 FISHING -0.2733
-4.9403 FIT -0.3002
-3.1621 FIVE -0.2654
-4.9403 FIX -0.3005
-4.9403 FLAG -0.3010
-4.9403 FLAGPOLE -0.2733
-4.9403 FLAMES -0.3010
-4.9403 FLARES -0.2733
-4.6392 FLAT -0.2733
-4.6392 FLEXIBILITY -0.2981
-4.0372 FLEXIBLE -0.2689
-3.8611 FLIGHT -0.2622
-4.9403 FLIP -0.3010
-4.6392 FLOOD -0.2733
-4.1621 FLOOR -0.2698
-4.6392 FLOORHANDS -0.2733
-4.9403 FLOORS -0.2733
-4.6392 FLOP -0.2733
-4.9403 FLOTATION -0.3010
-4.4631 FLOW -0.2711
-4.9403 FLOWCHART -0.2733
-4.9403 FLOWER -0.2733
-4.6392 FLOWERS -0.2733
-4.3382 FLU -0.2720
-4.9403 FLUCTUATING -0.3006
-4.9403 FLUTE -0.2733
-4.4631 FOCUS -0.2998
-4.9403 FOCUSES -0.2998
-4.9403 FOG -0.2733
-4.9403 FOGGY -0.2993
-4.9403 FOLK -0.2733
-4.1621 FOLLOW -0.2928
-4.0952 FOLLOWING -0.2966
-3.6850 FOOD -0.2603
-4.9403 FOOD'S -0.3004
-4.6392 FOOLISH -0.2733
-4.9403 FOOT -0.2993
-4.3382 FOOTBALL -0.2703
-2.5253 FOR -0.2352
-4.9403 FORBIDDEN -0.3010
-4.9403 FORCED -0.2945
-4.9403 FORECAST -0.2982
-4.9403 FORECASTING -0.2963
-4.9403 FOREFRONT -0.2990
-4.9403 FOREMAN -0.2733
-4.9403 FORESEE -0.3008
-4.1621 FOREST -0.2703
-4.6392 FOREVER -0.2733
-4.9403 FORGE -0.3005
-4.3382 FORGET -0.2961
-4.9403 FORGETS -0.2733
-4.4631 FORGIVE -0.2962
-4.9403 FORGOT -0.2945
-4.6392 FORK -0.2720
-4.9403 FORKLIFT -0.3010
-4.6392 FORM -0.2731
-4.9403 FORMAL -0.3007
-4.9403 FORMS -0.3009
-4.6392 FORTH -0.3010
-4.9403 FORTNIGHT -0.2733
-4.6392 FORTUNATELY -0.3010
-4.9403 FORTUNES -0.3009
-3.9860 FORTY -0.2999
-3.8989 FORWARD -0.2548
-4.6392 FOSSIL -0.3010
-3.9403 FOUND -0.2826
-4.9403 FOUNTAINS -0.2733
-3.5089 FOUR -0.2663
-4.9403 FOURS -0.2971
-4.4631 FOURTEEN -0.3009
-4.3382 FOURTH -0.2729
-4.4631 FOWER -0.3010
-4.4631 FOXTROT -0.2733
-4.9403 FRAMING -0.3002
-4.9403 FRANC -0.2733
-4.6392 FRANCE -0.2733
-4.9403 FRANCISCO -0.2733
-4.6392 FRANCO -0.3010
-4.9403 FRANK -0.3009
-4.6392 FRANKLY -0.2963
-4.9403 FRAUD -0.2733
-4.9403 FRAZZLED -0.2733
-4.9403 FREAKED -0.3007
-4.9403 FREAKS -0.3002
-3.6180 FREE -0.2672
-4.6392 FREEDOM -0.2681
-4.9403 FREELY -0.2733
-4.9403 FREEMAN -0.2733
-4.4631 FREEZE -0.2733
-4.9403 FREIGHTER -0.2733
-4.0372 FRENCH -0.3008
-4.1621 FRESH -0.2718
-4.9403 FRICTION -0.2733
-4.2413 FRIDAY -0.2733
-4.9403 FRIDAYS -0.2996
-4.9403 FRIDGE -0.2961
-4.9403 FRIED -0.3010
-3.8611 FRIEND -0.2685
-4.6392 FRIENDED -0.3000
-4.4631 FRIENDLY -0.2731
-3.8611 FRIENDS -0.2680
-4.2413 FRIES -0.2726
-3.0890 FROM -0.2478
-4.0372 FRONT -0.2641
-4.4631 FRUIT -0.2717
-4.9403 FRUITS -0.2996
-4.9403 FRUSTRATES -0.3002
-4.9403 FRUSTRATING -0.2733
-4.9403 FRUSTRATION -0.2733
-4.9403 FTC -0.3010
-4.1621 FUEL -0.2703
-4.9403 FUELS -0.3010
-4.0952 FULL -0.2710
-4.6392 FULLY -0.3010
-3.8989 FUN -0.2664
-4.9403 FUND -0.3010
-4.9403 FUNDAMENTAL -0.3010
-4.9403 FUNDAMENTALLY -0.3010
-4.9403 FUNDING -0.3010
-4.9403 FUNDRAISER -0.3010
-4.6392 FUNDS -0.2733
-4.9403 FUNERAL -0.3000
-4.0952 FUNNY -0.2733
-4.9403 FUR -0.3009
-4.9403 FURNISHED -0.2733
-4.9403 FURNITURE -0.2733
-4.3382 FURTHER -0.2733
-4.3382 FURTHERMORE -0.2913
-3.7941 FUTURE -0.2671
-4.9403 FUTURE'S -0.3010
-4.9403 G -0.3010
-4.9403 GABRIELLE -0.2974
-4.3382 GAIN -0.2728
-4.9403 GAINING -0.3010
-4.9403 GALAXY -0.3010
-4.9403 GALE -0.2733
-4.9403 GAMBLING -0.2733
-3.5978 GAME -0.2682
-4.0372 GAMES -0.2684
-4.9403 GAP -0.2993
-4.6392 GARAGE -0.2733
-4.9403 GARBAGE -0.3010
-4.6392 GARDEN -0.2732
-4.6392 GARDENING -0.2717
-4.9403 GARDENS -0.2733
-4.0952 GAS -0.2729
-4.6392 GASOLINE -0.2733
-4.6392 GATE -0.2733
-4.9403 GATHERING -0.3010
-4.9403 GAUGE -0.2733
-4.3382 GAVE -0.2937
-4.4631 GAZELLE'S -0.3009
-4.9403 GEAR -0.2997
-4.9403 GEE -0.2998
-4.9403 GENDER -0.3010
-4.1621 GENERAL -0.2729
-4.4631 GENERALLY -0.2963
-4.6392 GENERATE -0.3010
-4.9403 GENEROSITY -0.2995
-4.9403 GENEVA -0.2733
-4.9403 GENTLEMAN -0.3000
-4.6392 GENTLEMEN -0.2733
-4.4631 GENUINE -0.3010
-4.9403 GEODESIC -0.3010
-4.9403 GEOMETRY -0.2733
-4.9403 GERMANY -0.2733
-4.9403 GERMINATION -0.3010
-4.9403 GESTATION -0.3010
-2.9359 GET -0.2363
-3.9860 GETS -0.2654
-3.7642 GETTING -0.2914
-4.4631 GIFT -0.2733
-4.9403 GIFTS -0.2733
-4.9403 GIGABYTE -0.2990
-4.9403 GIGABYTES -0.2733
-4.6392 GIRL -0.2994
-4.6392 GIRLFRIEND -0.2733
-3.4351 GIVE -0.2877
-4.4631 GIVEN -0.2890
-4.3382 GIVES -0.2896
-4.9403 GIVING -0.2971
-4.9403 GLACIER -0.2733
-4.9403 GLACIERS -0.3008
-4.6392 GLAD -0.2971
-4.1621 GLASS -0.2989
-4.4631 GLASSES -0.2679
-4.6392 GLIDE -0.2733
-4.6392 GLIDING -0.2733
-4.9403 GLIMPSE -0.2990
-4.0952 GLOBAL -0.2733
-4.9403 GLOVE -0.3010
-4.9403 GLOVES -0.2733
-2.9765 GO -0.2556
-4.6392 GOAL -0.2704
-4.1621 GOALS -0.2704
-3.8989 GOES -0.2617
-2.9580 GOING -0.2635
-4.6392 GOLD -0.2996
-4.9403 GOLDFISH -0.2733
-4.0952 GOLF -0.2732
-4.9403 GONE -0.3003
-4.9403 GONNA -0.3010
-3.0160 GOOD -0.2604
-4.9403 GOODBYE -0.2733
-4.9403 GOODNESS -0.2945
-4.1621 GOODS -0.2718
-4.9403 GORGEOUS -0.2733
-4.9403 GORILLA -0.2733
-4.9403 GORILLAS -0.2733
-4.9403 GOSH -0.2733
-3.1341 GOT -0.2734
-4.9403 GOTHIC -0.2733
-4.9403 GOTTA -0.3000
-4.9403 GOVERNMENT -0.3010
-4.9403 GRAB -0.3005
-4.9403 GRABBING -0.2963
-4.9403 GRADE -0.2733
-4.6392 GRADUATE -0.3007
-4.1621 GRADUATED -0.2719
-4.9403 GRAFFITI -0.2733
-4.9403 GRAINS -0.2733
-4.6392 GRAM -0.2732
-4.9403 GRAMS -0.3010
-4.9403 GRAND -0.3010
-4.6392 GRANDFATHER -0.2733
-4.9403 GRANDIOSE -0.2733
-4.9403 GRANDMA -0.3007
-4.6392 GRANDMOTHER -0.2733
-4.6392 GRANTED -0.3009
-4.1621 GRAPH -0.2720
-4.6392 GRAPHIC -0.3010
-4.9403 GRAPHICS -0.3001
-4.6392 GRASS -0.2733
-4.9403 GRATEFUL -0.2961
-4.6392 GRATIFYING -0.2733
-4.6392 GRAY -0.2733
-3.2160 GREAT -0.2585
-4.9403 GREATER -0.3009
-4.9403 GREATEST -0.3010
-4.6392 GREATLY -0.3010
-4.9403 GREED -0.3007
-3.7941 GREEN -0.3007
-4.6392 GREW -0.3006
-4.9403 GRIM -0.3010
-4.9403 GRIND -0.3001
-4.9403 GRIP -0.2998
-4.9403 GRIPPING -0.3010
-4.9403 GRITTY -0.2995
-4.9403 GROCERY -0.3010
-4.4631 GROUND -0.2729
-4.9403 GROUNDBREAKING -0.2995
-4.4631 GROUP -0.2731
-4.4631 GROUPS -0.2730
-4.9403 GROVE -0.3008
-4.9403 GROW -0.3006
-4.4631 GROWN -0.3006
-4.4631 GROWTH -0.2729
-4.4631 GUARANTEE -0.2683
-4.4631 GUARANTEED -0.2681
-4.9403 GUARD -0.2733
-4.1621 GUESS -0.2644
-4.9403 GUESSES -0.2945
-4.9403 GUESTS -0.2733
-4.9403 GUIDE -0.2982
-4.9403 GUIDEBOOK -0.2733
-4.9403 GUIDED -0.3006
-4.1621 GUILTY -0.2695
-4.1621 GUITAR -0.2716
-4.9403 GUN -0.2733
-4.3382 GUY -0.2721
-4.9403 GUYS -0.3000
-4.6392 GUZZLING -0.3010
-4.2413 GYM -0.2708
-4.9403 GYMNASTICS -0.2733
-4.6392 HABIT -0.2711
-4.6392 HABITAT -0.2729
-4.9403 HABITS -0.2733
-3.2871 HAD -0.2767
-4.4631 HADN'T -0.3005
-3.8263 HAIR -0.2732
-4.3382 HALF -0.2942
-4.6392 HALL -0.2704
-4.9403 HALLUCINATIONS -0.2995
-4.6392 HAMBURGER -0.2733
-4.9403 HAMMER -0.2733
-4.9403 HAMPTON -0.3009
-4.0372 HAND -0.2627
-4.9403 HANDBAG -0.2733
-4.6392 HANDLE -0.2986
-4.9403 HANDLES -0.2963
-4.9403 HANDMADE -0.2995
-4.4631 HANDS -0.2998
-4.9403 HANDWASH -0.2995
-4.9403 HANDY -0.2961
-4.2413 HANG -0.2995
-4.9403 HANGAR -0.2733
-4.9403 HANGING -0.3007
-4.6392 HANKS -0.2732
-4.0952 HAPPEN -0.2727
-4.1621 HAPPENED -0.2720
-4.9403 HAPPENING -0.3003
-4.6392 HAPPENS -0.2976
-4.9403 HAPPIER -0.2733
-3.9403 HAPPY -0.2918
-3.7098 HARD -0.2645
-4.6392 HARDER -0.2733
-4.9403 HARDLY -0.3008
-4.9403 HARDSHIP -0.2733
-4.3382 HARDWORKING -0.2716
-4.9403 HARNESS -0.2733
-4.6392 HARNESSES -0.2721
-4.9403 HARRY -0.3010
-4.9403 HARRY'S -0.2733
-2.8872 HAS -0.2786
-4.4631 HASN'T -0.3010
-4.4631 HAT -0.2704
-4.9403 HATE -0.2961
-4.9403 HATED -0.3009
-4.9403 HATES -0.3009
-4.6392 HATS -0.2717
-4.9403 HAUNT -0.3009
-2.5057 HAVE -0.2352
-4.2413 HAVEN'T -0.2688
-3.6615 HAVING -0.2954
-4.9403 HAWAII -0.2733
-4.9403 HAZARD -0.2733
-4.4631 HAZARDOUS -0.2961
-2.6243 HE -0.2544
-4.6392 HE'D -0.3006
-4.4631 HE'LL -0.2993
-3.1694 HE'S -0.2832
-4.6392 HEAD -0.2733
-4.2413 HEADACHE -0.2717
-4.9403 HEADLINE -0.3010
-4.9403 HEADPHONES -0.2733
-4.4631 HEADQUARTERS -0.2704
-4.6392 HEADS -0.2995
-4.9403 HEADWAY -0.2733
-4.2413 HEALTH -0.2717
-4.9403 HEALTHCARE -0.2733
-4.2413 HEALTHY -0.2733
-3.5978 HEAR -0.2531
-3.8989 HEARD -0.2630
-4.6392 HEARING -0.2971
-4.6392 HEART -0.3010
-4.9403 HEARTBEAT -0.2733
-4.9403 HEARTY -0.3010
-4.9403 HEATED -0.3010
-4.9403 HEATHER -0.3007
-4.9403 HEAVIEST -0.3010
-4.9403 HEAVY -0.3010
-4.4631 HECTIC -0.2716
-4.9403 HEDONISM -0.2733
-4.9403 HEDONIST -0.2733
-4.4631 HEIGHTS -0.2694
-4.6392 HELD -0.3010
-4.4631 HELICOPTER -0.2733
-4.4631 HELLO -0.2669
-3.3382 HELP -0.2582
-4.6392 HELPFUL -0.2732
-4.3382 HELPING -0.2958
-4.0952 HELPS -0.2914
-4.9403 HENRY -0.3010
-4.9403 HEPATITIS -0.2963
-3.1621 HER -0.2506
-4.9403 HERBAL -0.3010
-3.3275 HERE -0.2553
-4.2413 HERE'S -0.2952
-4.9403 HERITAGE -0.2733
-4.9403 HEROES -0.2733
-4.9403 HEROIC -0.3010
-4.9403 HEROIN -0.2982
-4.9403 HERS -0.2961
-4.6392 HERSELF -0.3006
-4.9403 HESITATE -0.2961
-4.4631 HEY -0.2999
-4.9403 HIDDEN -0.3007
-4.9403 HIDE -0.2999
-4.9403 HIERARCHICAL -0.2995
-3.6180 HIGH -0.2681
-4.4631 HIGHER -0.2714
-4.4631 HIGHEST -0.3009
-4.1621 HIGHLY -0.3009
-4.6392 HIGHWAY -0.2982
-4.1621 HIKING -0.2703
-4.6392 HILLS -0.2733
-3.4631 HIM -0.2558
-4.6392 HIMSELF -0.2681
-4.9403 HINDSIGHT -0.2996
-4.6392 HIP -0.2733
-4.9403 HIPS -0.2733
-4.3382 HIRE -0.2961
-4.4631 HIRED -0.2729
-4.4631 HIRES -0.2733
-4.4631 HIRING -0.3010
-3.1549 HIS -0.2704
-4.6392 HISTORICAL -0.3010
-4.3382 HISTORY -0.2711
-4.2413 HIT -0.2887
-4.9403 HITTING -0.2945
-4.6392 HMM -0.2998
-4.0952 HO -0.3003
-4.9403 HOCKEY -0.2733
-4.2413 HOLD -0.2712
-4.9403 HOLDEN -0.3010
-4.4631 HOLDING -0.3000
-4.3382 HOLDS -0.2958
-4.4631 HOLES -0.2733
-4.9403 HOLIDAY -0.2733
-4.6392 HOLIDAYS -0.2733
-4.9403 HOLOGRAM -0.2733
-3.7642 HOME -0.2691
-4.9403 HOMELESS -0.3006
-4.9403 HOMEMAKER -0.2733
-4.9403 HOMEOWNER'S -0.3010
-4.9403 HOMES -0.2996
-4.4631 HOMETOWN -0.2704
-4.3382 HONEST -0.2708
-4.6392 HONESTLY -0.3007
-4.9403 HONESTY -0.2982
-4.6392 HONEY -0.2733
-4.9403 HONOR -0.2961
-4.9403 HONORABLE -0.3010
-4.9403 HOOD -0.3010
-4.6392 HOP -0.2721
-3.6850 HOPE -0.2863
-4.6392 HOPED -0.2725
-4.9403 HOPEFULLY -0.3009
-4.6392 HOPES -0.2961
-4.4631 HOPING -0.2933
-4.3382 HORIZONTAL -0.3010
-4.9403 HORMONES -0.2993
-4.4631 HORRIBLE -0.2733
-4.9403 HORRIFIC -0.3010
-4.9403 HORROR -0.2733
-4.9403 HORSE -0.2733
-4.9403 HORSEBACK -0.3010
-4.9403 HORSEPOWER -0.2993
-4.9403 HORSES -0.2733
-4.6392 HOSE -0.2730
-4.6392 HOSPITAL -0.2733
-4.9403 HOSPITALIZED -0.3003
-4.6392 HOST -0.2733
-4.6392 HOSTEL -0.2733
-4.0952 HOT -0.2730
-3.7098 HOTEL -0.2714
-4.1621 HOUR -0.2665
-3.9403 HOURS -0.2655
-3.6615 HOUSE -0.2609
-4.9403 HOUSED -0.2993
-4.9403 HOUSES -0.3010
-4.9403 HOUSEWARMING -0.2733
-4.4631 HOUSING -0.2719
-2.8197 HOW -0.2343
-4.0372 HOW'S -0.2901
-4.6392 HOWEVER -0.2963
-4.9403 HR -0.3009
-4.4631 HUGE -0.3009
-4.2413 HUH -0.2733
-4.2413 HUMAN -0.3010
-4.9403 HUMANISM -0.2733
-4.9403 HUMANIST -0.2733
-4.9403 HUMANITARIAN -0.3007
-4.9403 HUMANITARIANS -0.3010
-4.9403 HUMANITY -0.2733
-4.9403 HUMBLE -0.3010
-4.6392 HUMOR -0.2982
-3.2682 HUNDRED -0.2631
-4.9403 HUNDREDS -0.2990
-4.9403 HUNG -0.3006
-4.4631 HURRICANE -0.2733
-4.6392 HURRY -0.3002
-4.4631 HURT -0.2677
-4.6392 HURTING -0.3009
-4.9403 HUSBAND'S -0.3010
-4.4631 HYBRID -0.2733
-4.9403 HYDROGEN -0.3010
-4.9403 HYDROPOWER -0.2982
-2.0746 I -0.2523
-3.0007 I'D -0.2943
-3.2160 I'LL -0.2952
-2.5998 I'M -0.2863
-3.2775 I'VE -0.2992
-4.9403 IBX -0.3010
-4.2413 ICE -0.3009
-4.9403 ICEBERG -0.2733
-4.9403 ICED -0.3010
-4.9403 ICON -0.2961
-4.9403 ICONS -0.2733
-3.4631 IDEA -0.2616
-4.6392 IDEAL -0.3010
-4.9403 IDEALLY -0.2974
-3.9860 IDEAS -0.2714
-4.3382 IDENTIFY -0.2942
-4.9403 IDENTITY -0.3010
-4.9403 IDIOT -0.2733
-2.8575 IF -0.2780
-4.9403 ILL -0.2733
-4.0952 ILLEGAL -0.2680
-4.9403 ILLEGALLY -0.3010
-4.9403 ILLITERATE -0.2733
-4.9403 ILLUSTRATES -0.2733
-4.4631 IMAGE -0.2733
-4.9403 IMAGES -0.2961
-4.9403 IMAGINATION -0.2982
-4.0952 IMAGINE -0.2960
-4.9403 IMMEDIATE -0.3010
-4.4631 IMMEDIATELY -0.2733
-4.6392 IMMIGRANTS -0.2996
-4.9403 IMMIGRATION -0.2733
-4.4631 IMPACT -0.2699
-4.9403 IMPACTS -0.2733
-4.6392 IMPAIRED -0.2733
-4.9403 IMPASSE -0.2733
-4.9403 IMPERATIVE -0.2996
-4.6392 IMPOLITE -0.2961
-4.9403 IMPORT -0.3010
-3.5978 IMPORTANT -0.2606
-4.9403 IMPORTED -0.3010
-4.9403 IMPORTS -0.2733
-4.6392 IMPOSE -0.2733
-4.9403 IMPOSING -0.3010
-4.9403 IMPOSITION -0.3004
-4.6392 IMPOSSIBLE -0.2681
-4.9403 IMPRESSED -0.3003
-4.6392 IMPRESSIONIST -0.3010
-4.6392 IMPRESSIVE -0.3007
-4.0372 IMPROVE -0.2715
-4.9403 IMPROVEMENT -0.2733
-4.9403 IMPROVING -0.3010
-2.3913 IN -0.2305
-4.4631 INAPPROPRIATE -0.2681
-4.3382 INCLUDE -0.2963
-4.6392 INCLUDES -0.3005
-4.9403 INCLUDING -0.3010
-4.3382 INCOME -0.2730
-4.6392 INCONVENIENCE -0.2733
-4.6392 INCORPORATE -0.2998
-4.9403 INCORRECT -0.2733
-3.8611 INCREASE -0.2639
-4.0952 INCREASED -0.3006
-4.9403 INCREASES -0.3009
-4.3382 INCREASING -0.2732
-4.6392 INCREDIBLE -0.2733
-4.9403 INDEED -0.2974
-4.9403 INDEPENDENT -0.3007
-4.6392 INDEX -0.3000
-4.4631 INDIA -0.2733
-4.9403 INDICATE -0.3010
-4.9403 INDICATES -0.2733
-4.4631 INDICATOR -0.2733
-4.6392 INDICATORS -0.2732
-4.9403 INDIRECT -0.3010
-4.9403 INDIVIDUAL'S -0.3010
-4.9403 INDIVIDUALS -0.2961
-4.9403 INDOOR -0.3008
-4.2413 INDUSTRY -0.2730
-4.9403 INEVITABLY -0.3010
-4.9403 INEXPENSIVE -0.2733
-4.9403 INEXPERIENCED -0.3010
-4.9403 INEXTRICABLY -0.3010
-4.9403 INFLATABLE -0.3009
-4.9403 INFLEXIBLE -0.2733
-4.9403 INFORM -0.3006
-3.7642 INFORMATION -0.2659
-4.4631 INFORMED -0.2664
-4.9403 INFRACTION -0.2733
-4.9403 INFRASTRUCTURE -0.3010
-4.9403 INFUSION -0.2733
-4.9403 INHABIT -0.3010
-4.9403 INITIALLY -0.3000
-4.6392 INJECTION -0.2731
-4.9403 INJURED -0.3010
-4.3382 INJURIES -0.2719
-4.4631 INJURY -0.2727
-4.9403 INK -0.2733
-4.9403 INLETS -0.2733
-4.9403 INNOVATE -0.2733
-4.1621 INNOVATION -0.2687
-4.4631 INNOVATIVE -0.2733
-4.9403 INPUT -0.3007
-4.9403 INSANE -0.2733
-4.6392 INSECTS -0.2719
-4.9403 INSIDER -0.3010
-4.9403 INSISTS -0.2998
-4.9403 INSOMNIA -0.2733
-4.9403 INSPECTOR -0.3010
-4.9403 INSPIRING -0.2733
-4.9403 INSTALL -0.2963
-4.6392 INSTALLED -0.2664
-4.9403 INSTALLING -0.3010
-4.9403 INSTANCE -0.3008
-4.6392 INSTANT -0.3010
-4.4631 INSTEAD -0.2990
-4.6392 INSTRUCTIONS -0.2721
-4.9403 INSTRUCTOR -0.3006
-4.9403 INSTRUMENTAL -0.3007
-4.0952 INSURANCE -0.2704
-4.9403 INSURE -0.2999
-4.9403 INSURMOUNTABLE -0.2733
-4.9403 INTACT -0.2733
-4.6392 INTEGRATE -0.2943
-4.6392 INTELLECTUAL -0.2731
-4.9403 INTELLIGENCE -0.2982
-4.9403 INTELLIGENT -0.3010
-4.9403 INTEND -0.2961
-4.9403 INTENSE -0.3010
-4.9403 INTENSITY -0.2733
-4.9403 INTENTION -0.2982
-4.6392 INTERACTION -0.2975
-4.9403 INTEREST -0.3000
-4.1621 INTERESTED -0.2715
-4.0952 INTERESTING -0.2703
-4.9403 INTERESTS -0.3000
-4.9403 INTERFACE -0.3008
-4.6392 INTERIOR -0.3010
-4.9403 INTERJECT -0.2733
-4.9403 INTERNAL -0.2995
-4.0372 INTERNET -0.2697
-4.9403 INTERROGATING -0.3009
-4.3382 INTERRUPT -0.2687
-4.4631 INTERRUPTING -0.2718
-4.9403 INTERRUPTIONS -0.2733
-4.3382 INTERVIEW -0.2729
-4.9403 INTERVIEWED -0.2733
-4.9403 INTERVIEWS -0.3008
-3.4931 INTO -0.2851
-4.9403 INTRAMUSCULAR -0.3010
-4.9403 INTRAVENOUS -0.3010
-4.4631 INTRIGUING -0.2729
-4.0952 INTRODUCE -0.2965
-4.9403 INVENTION -0.2982
-4.9403 INVEST -0.2733
-4.9403 INVESTING -0.2733
-4.4631 INVESTMENT -0.2733
-4.6392 INVESTMENTS -0.2733
-4.9403 INVESTOR -0.2733
-4.9403 INVINCIBLE -0.2733
-4.9403 INVITATION -0.2733
-4.4631 INVITED -0.2951
-4.4631 INVITING -0.2995
-4.9403 INVOLVE -0.2963
-4.9403 INVOLVED -0.2993
-4.4631 INVOLVES -0.2663
-4.9403 IRON -0.2982
-4.9403 IRONED -0.2999
-4.9403 IRRESPONSIBLE -0.2733
-2.1921 IS -0.2059
-4.9403 ISADORA -0.3010
-4.9403 ISLAND -0.2733
-3.6180 ISN'T -0.2657
-4.9403 ISOLATED -0.3010
-4.1621 ISSUE -0.2704
-4.1621 ISSUES -0.2654
-2.4365 IT -0.2209
-4.9403 IT'LL -0.3001
-2.5493 IT'S -0.2652
-4.4631 ITALIAN -0.2732
-4.9403 ITALY -0.3007
-3.9860 ITEM -0.2973
-4.6392 ITEMS -0.2719
-4.9403 ITINERARY -0.2733
-3.9403 ITS -0.3002
-4.9403 ITSELF -0.2733
-4.6392 JACK -0.2981
-4.1621 JACKET -0.2733
-4.9403 JACKHAMMER -0.2733
-4.9403 JACKSON -0.2733
-4.9403 JACKSONS -0.3007
-4.9403 JACOB -0.2733
-4.9403 JACOBS -0.2733
-4.9403 JACUZZI -0.2733
-4.6392 JAKE -0.3009
-4.9403 JAMES -0.2733
-4.9403 JAMIE -0.3010
-4.6392 JANE -0.2995
-4.3382 JANUARY -0.2733
-4.3382 JAPAN -0.2732
-4.9403 JAY'S -0.3006
-4.4631 JAZZ -0.2733
-4.9403 JEALOUS -0.2733
-4.9403 JEAN -0.3010
-4.0372 JEANS -0.2717
-4.9403 JEEPS -0.2995
-4.9403 JEN -0.2733
-4.9403 JEPSON -0.2733
-4.9403 JET -0.3010
-4.9403 JIGSAW -0.3005
-4.6392 JINGLE -0.2957
-4.4631 JOAN -0.2725
-3.2413 JOB -0.2562
-4.9403 JOB'S -0.3010
-4.1621 JOBS -0.2965
-4.9403 JOCK -0.2733
-4.9403 JOCKEY -0.3010
-4.9403 JOE -0.3000
-4.4631 JOE'S -0.3009
-4.9403 JOGGING -0.2733
-4.3382 JOHN -0.2963
-4.9403 JOIN -0.2963
-4.9403 JOKE -0.2982
-4.6392 JONAS -0.2990
-4.9403 JORDAN -0.3007
-4.6392 JOSE -0.2733
-4.9403 JOSEPHINE -0.3010
-4.9403 JOSH -0.3000
-4.9403 JOURNAL -0.2733
-4.9403 JOURNALISTS -0.2996
-4.9403 JOURNEY -0.2733
-4.9403 JUDGE -0.3010
-4.9403 JUICE -0.2733
-4.9403 JULIET -0.3010
-4.9403 JULY -0.3010
-4.6392 JUMP -0.2727
-4.9403 JUMPED -0.2998
-4.9403 JUMPING -0.2733
-4.4631 JUNE -0.2733
-4.1621 JURY -0.2978
-4.9403 JURY'S -0.3010
-3.1409 JUST -0.2742
-4.6392 JUSTICE -0.3010
-4.9403 JUSTIN -0.3007
-4.6392 KARATE -0.2733
-4.9403 KAREN'S -0.3010
-4.9403 KARI -0.3010
-4.9403 KASBA -0.3010
-4.6392 KATIE -0.2981
-4.9403 KEATON -0.3009
-4.9403 KEEN -0.2998
-3.7642 KEEP -0.2822
-4.4631 KEEPING -0.2990
-4.6392 KEEPS -0.3010
-4.6392 KELLY -0.3010
-4.4631 KEN -0.3007
-4.6392 KENYA -0.3007
-4.9403 KEPT -0.3010
-4.9403 KEVIN -0.3008
-3.9403 KEY -0.2701
-4.3382 KEYBOARD -0.2679
-4.6392 KEYPAD -0.2704
-4.9403 KEYS -0.2733
-4.9403 KICK -0.3009
-4.9403 KID -0.2733
-4.3382 KIDDING -0.3002
-4.9403 KIDS -0.2963
-4.9403 KILL -0.3010
-4.4631 KILLED -0.2679
-4.9403 KILLING -0.3002
-4.9403 KILO -0.3010
-4.9403 KILOGRAM -0.2733
-4.6392 KILOMETERS -0.2684
-4.9403 KIM -0.3010
-3.8989 KIND -0.2989
-4.9403 KINDS -0.2990
-4.9403 KING -0.3010
-4.1621 KITCHEN -0.2729
-4.9403 KL -0.3010
-4.9403 KNEW -0.3003
-4.9403 KNIFE -0.2995
-4.9403 KNIGHT -0.2733
-4.9403 KNOT -0.2733
-4.6392 KNOTS -0.2733
-3.3721 KNOW -0.2504
-4.9403 KNOWING -0.3007
-4.6392 KNOWN -0.2998
-4.0372 KNOWS -0.2656
-4.9403 KYLE -0.2982
-4.9403 LA -0.3010
-4.9403 LABOR -0.3010
-4.4631 LACK -0.2990
-4.6392 LADDER -0.2733
-4.6392 LADIES -0.2995
-4.9403 LAGGED -0.2995
-4.9403 LAGOON -0.2733
-4.2413 LAKE -0.2733
-4.9403 LAMBERT -0.2733
-4.9403 LAMP -0.2733
-4.4631 LAND -0.2721
-4.9403 LANDED -0.2998
-4.9403 LANDFILL -0.2733
-4.9403 LANDING -0.2733
-4.9403 LANDLORD -0.2997
-4.3382 LANGUAGE -0.2719
-4.9403 LAP -0.2733
-4.0952 LAPTOP -0.2702
-4.0372 LARGE -0.2731
-4.9403 LARGER -0.2733
-4.3382 LARGEST -0.3009
-4.9403 LAS -0.3010
-4.9403 LASAGNA -0.2733
-3.4088 LAST -0.2714
-4.6392 LASTED -0.3006
-4.9403 LASTING -0.3010
-4.9403 LASTS -0.3010
-3.9860 LATE -0.2596
-4.9403 LATELY -0.2733
-4.0372 LATER -0.2703
-4.9403 LATERAL -0.3010
-4.6392 LATEST -0.3009
-4.6392 LATITUDE -0.2732
-4.6392 LAUGHING -0.2717
-4.9403 LAUREN -0.3010
-4.9403 LAVA -0.3010
-4.4631 LAW -0.2733
-4.9403 LAWNS -0.2733
-4.6392 LAWS -0.2733
-4.2413 LAWYER -0.2696
-4.9403 LAY -0.3010
-4.3382 LAYOFFS -0.2719
-4.2413 LEAD -0.2913
-4.4631 LEADER -0.2733
-4.3382 LEADERSHIP -0.2704
-4.9403 LEADING -0.3010
-4.9403 LEAKING -0.3009
-4.9403 LEAN -0.3010
-4.9403 LEANNE -0.3008
-4.1621 LEARN -0.2982
-4.6392 LEARNED -0.2897
-4.9403 LEARNER -0.2733
-4.9403 LEARNING -0.3004
-4.4631 LEAST -0.2938
-4.2413 LEATHER -0.2733
-4.0952 LEAVE -0.2934
-4.6392 LEAVES -0.2936
-4.2413 LEAVING -0.2703
-4.6392 LED -0.2894
-3.7098 LEFT -0.2563
-4.4631 LEG -0.2733
-4.9403 LEGALLY -0.2733
-4.6392 LEGENDS -0.2996
-4.6392 LEGS -0.3007
-4.6392 LEISURE -0.3010
-4.9403 LEISURELY -0.2995
-4.9403 LEND -0.2971
-4.9403 LENGTH -0.3010
-4.0372 LESS -0.2729
-3.4351 LET -0.2997
-3.2327 LET'S -0.2951
-4.9403 LETS -0.2971
-4.4631 LETTERS -0.2732
-4.2413 LEVEL -0.2716
-4.9403 LEVELS -0.2996
-4.4631 LI -0.2994
-4.9403 LIABILITY -0.2982
-4.9403 LIAM -0.3010
-4.0952 LIBRARY -0.2704
-4.9403 LICENSE -0.3008
-4.9403 LIED -0.2961
-4.9403 LIEUTENANT -0.2733
-3.6392 LIFE -0.2685
-4.9403 LIFE'S -0.3008
-4.9403 LIFEBOAT -0.2733
-4.9403 LIFEBUOYS -0.2733
-4.9403 LIFEJACKET -0.3009
-4.9403 LIFESTYLE -0.2733
-4.9403 LIFETIME -0.2733
-4.9403 LIFT -0.2733
-4.9403 LIFT' -0.2997
-4.9403 LIGHTWEIGHT -0.2995
-2.6997 LIKE -0.2308
-4.9403 LIKED -0.2945
-4.3382 LIKELY -0.2916
-4.1621 LIKES -0.2959
-4.9403 LILY -0.3010
-4.9403 LIMA -0.3010
-4.9403 LIMBER -0.2733
-4.6392 LIMIT -0.2733
-4.6392 LIMITATIONS -0.2730
-4.9403 LIMITS -0.2733
-4.9403 LIMOUSINE -0.2733
-4.9403 LINA -0.2733
-3.6392 LINE -0.2652
-4.6392 LINER -0.2729
-4.9403 LINES -0.3010
-4.6392 LINK -0.2664
-4.9403 LINKED -0.2733
-4.6392 LINKS -0.2960
-4.9403 LION -0.2733
-4.9403 LIONS -0.3008
-4.6392 LIQUID -0.3009
-4.4631 LIQUIDS -0.2733
-4.3382 LISA -0.3009
-4.9403 LIST -0.2733
-4.0952 LISTEN -0.2676
-4.4631 LISTENING -0.2733
-4.6392 LITER -0.2711
-4.6392 LITERATURE -0.2733
-3.7941 LITTLE -0.2997
-4.9403 LIU -0.3006
-3.6392 LIVE -0.2624
-4.9403 LIVELIHOODS -0.2990
-4.2413 LIVES -0.2703
-3.7361 LIVING -0.2602
-4.9403 LIZARD -0.2733
-4.9403 LM -0.3010
-4.9403 LOADED -0.3000
-4.9403 LOAF -0.2990
-4.2413 LOAN -0.2726
-4.9403 LOBBY -0.2733
-4.1621 LOCAL -0.3009
-4.9403 LOCALLY -0.3010
-4.4631 LOCATED -0.2993
-4.9403 LOCATING -0.3008
-4.6392 LOCATION -0.2711
-4.6392 LOG -0.2715
-4.9403 LOGIC -0.2733
-4.6392 LOGO -0.2962
-4.3382 LONDON -0.2704
-4.6392 LONELY -0.2733
-3.5978 LONG -0.2616
-4.4631 LONGER -0.2733
-4.9403 LONGEST -0.3010
-4.6392 LONGITUDE -0.2728
-3.4351 LOOK -0.2970
-4.9403 LOOKED -0.3010
-3.7361 LOOKING -0.2935
-4.1621 LOOKS -0.2998
-4.6392 LOOP -0.2729
-4.6392 LOOSE -0.3008
-4.9403 LORRY -0.2733
-4.1621 LOS -0.3010
-4.0372 LOSE -0.2705
-4.1621 LOSING -0.2992
-4.9403 LOSS -0.2733
-4.6392 LOSSES -0.3002
-4.0952 LOST -0.2893
-3.3170 LOT -0.2622
-4.1621 LOTS -0.2990
-4.6392 LOUD -0.3009
-4.6392 LOUDER -0.2731
-4.9403 LOUIS -0.2982
-4.6392 LOUVRE -0.2999
-3.5253 LOVE -0.2487
-4.6392 LOVED -0.3010
-4.6392 LOVELY -0.3007
-4.6392 LOVES -0.3007
-4.2413 LOW -0.2711
-4.3382 LOWER -0.2943
-4.9403 LOWERING -0.2945
-4.9403 LSD -0.2733
-4.6392 LUCK -0.2729
-4.6392 LUCKY -0.2995
-4.9403 LUCRATIVE -0.2974
-4.4631 LUGGAGE -0.2733
-4.9403 LUKE -0.3001
-4.9403 LUMBER -0.2733
-4.1621 LUNCH -0.2733
-4.9403 LURCH -0.3009
-4.9403 LYING -0.2733
-4.9403 LYNN'S -0.3008
-4.3382 M -0.2733
-4.9403 MA -0.2993
-4.9403 MACCHU -0.3010
-4.3382 MACHINE -0.2733
-4.9403 MACHINES -0.2733
-4.9403 MAD -0.3004
-3.8263 MADE -0.2613
-4.6392 MAGIC -0.3010
-4.9403 MAHAL -0.2733
-4.9403 MAILBOX -0.2733
-3.6615 MAIN -0.2713
-4.9403 MAINLY -0.3010
-4.9403 MAINTAIN -0.2995
-4.9403 MAISON -0.3009
-4.2413 MAJOR -0.3010
-3.2243 MAKE -0.2501
-3.8263 MAKES -0.2847
-4.6392 MAKEUP -0.2733
-3.9860 MAKING -0.2878
-4.9403 MALARIA -0.2993
-4.6392 MALL -0.2733
-3.8263 MAN -0.2944
-4.6392 MANAGE -0.2729
-4.9403 MANAGEABLE -0.2733
-4.9403 MANAGED -0.2961
-4.3382 MANAGEMENT -0.2717
-3.6615 MANAGER -0.2703
-4.4631 MANAGERS -0.2733
-4.9403 MANAGING -0.3007
-4.9403 MANDARIN -0.2982
-4.9403 MANDATORY -0.3010
-4.9403 MANICURED -0.3010
-4.9403 MANIFEST -0.3010
-4.4631 MANNERS -0.2681
-4.9403 MANSION -0.2733
-4.9403 MANUFACTURED -0.3010
-4.9403 MANUFACTURERS -0.2733
-4.9403 MANUFACTURING -0.3010
-3.5978 MANY -0.2722
-4.9403 MAPLE -0.3010
-4.9403 MARBLE -0.2995
-4.4631 MARCH -0.2733
-4.9403 MARCUS -0.3010
-4.9403 MARIJUANA -0.2733
-4.9403 MARILYN -0.3010
-4.9403 MARITAL -0.3010
-4.4631 MARK -0.2733
-4.9403 MARK'S -0.2963
-3.6615 MARKET -0.2687
-4.3382 MARKETING -0.2733
-4.9403 MARKETS -0.2996
-4.9403 MARKS -0.2733
-4.9403 MARLOW -0.2997
-4.0952 MARRIED -0.2715
-4.9403 MARRIES -0.2963
-4.9403 MARRYING -0.2963
-4.6392 MARTELLI -0.2733
-4.9403 MARTHA -0.3010
-4.9403 MARTIN -0.3006
-4.9403 MARTY -0.3010
-4.6392 MARY -0.3009
-4.6392 MASHED -0.3010
-4.9403 MASTER'S -0.2993
-4.9403 MASTERPIECE -0.2733
-4.4631 MATERIALS -0.2724
-4.9403 MATH -0.2733
-4.9403 MATT -0.3000
-4.3382 MATTER -0.2718
-4.6392 MATTERS -0.2732
-4.9403 MATTHEW -0.3010
-4.9403 MATTHEW'S -0.3004
-4.9403 MAX -0.2982
-4.6392 MAXIMIZE -0.2994
-4.9403 MAXIMIZES -0.3009
-3.5423 MAY -0.2930
-3.9860 MAYBE -0.2877
-4.4631 MAYDAY -0.2733
-4.6392 MBA -0.3007
-4.6392 MBAS -0.2994
-4.6392 MCCLAREN -0.2722
-4.9403 MCGILL -0.3010
-2.7022 ME -0.2172
-4.3382 MEAL -0.2681
-4.9403 MEALS -0.2733
-3.6392 MEAN -0.2513
-4.9403 MEANING -0.3009
-4.9403 MEANINGFUL -0.3007
-4.2413 MEANS -0.2732
-4.6392 MEASURES -0.3009
-4.9403 MEASURING -0.3010
-4.9403 MEAT -0.2996
-4.9403 MEATS -0.2733
-4.2413 MEDICAL -0.3010
-4.9403 MEDICARE -0.3010
-4.4631 MEDICATION -0.2733
-4.9403 MEDICATIONS -0.2733
-4.6392 MEDICINE -0.2733
-4.9403 MEDITERRANEAN -0.2733
-4.9403 MEDIUM -0.3010
-3.7098 MEET -0.2560
-3.5601 MEETING -0.2634
-4.9403 MEETING'S -0.3010
-4.9403 MEETINGS -0.2998
-4.6392 MEETS -0.3010
-4.9403 MELODY -0.2733
-4.3382 MELOPREPPAN -0.2952
-4.9403 MEMBER -0.3008
-4.3382 MEMBERS -0.2721
-4.4631 MEMORY -0.2733
-4.6392 MEN -0.2994
-4.9403 MEN'S -0.3010
-4.4631 MENTAL -0.3010
-4.9403 MENTIONED -0.3010
-4.9403 MENTIONS -0.3002
-4.9403 MENU -0.3005
-4.9403 MERGED -0.3010
-4.3382 MERGER -0.2978
-4.9403 MERGERS -0.3010
-4.9403 MESS -0.2733
-4.6392 MESSAGE -0.2722
-4.9403 MESSAGING -0.2733
-4.0372 MET -0.2640
-4.9403 METAPHORS -0.2997
-4.9403 METERS -0.2733
-4.9403 METHAMPHETAMINE -0.2733
-4.4631 METHOD -0.2711
-4.9403 METHODOLOGY -0.3010
-4.9403 METHODS -0.2733
-4.9403 MEXICAN -0.3009
-4.6392 MEXICO -0.2733
-4.3382 MIA -0.3010
-4.9403 MICROCHIP -0.2733
-4.9403 MICROPHONE -0.2733
-4.9403 MID -0.3010
-4.4631 MIDDLE -0.2990
-3.9860 MIGHT -0.2991
-4.9403 MIGRAINE -0.2995
-4.9403 MIGRAINES -0.3009
-4.9403 MIGRATING -0.2961
-4.9403 MIKE -0.2733
-4.9403 MILD -0.3010
-4.9403 MILE -0.2733
-4.4631 MILES -0.2733
-4.9403 MILESTONES -0.3006
-4.9403 MILITANT -0.3010
-4.9403 MILITARY -0.2733
-4.6392 MILK -0.2733
-4.9403 MILLIGRAM -0.3010
-4.9403 MILLIGRAMS -0.2990
-4.9403 MILLIMETRE -0.2733
-3.8989 MILLION -0.2726
-4.9403 MILLIONS -0.2990
-3.5785 MIND -0.2632
-4.9403 MINDED -0.3006
-4.4631 MINE -0.2719
-4.9403 MINERAL -0.3009
-4.9403 MINI -0.3010
-4.9403 MINIMALIST -0.3010
-4.9403 MINISCULE -0.3010
-4.6392 MINISTERS -0.3009
-4.9403 MINOR -0.3010
-4.4631 MINUTE -0.2722
-3.9403 MINUTES -0.2711
-4.4631 MISMANAGEMENT -0.2916
-4.2413 MISS -0.2904
-4.3382 MISSED -0.2604
-4.6392 MISSING -0.2733
-4.9403 MISSION -0.3010
-4.9403 MIST -0.3009
-4.6392 MISTAKE -0.2731
-4.9403 MISTAKEN -0.2945
-4.4631 MISTAKES -0.2717
-4.9403 MISUNDERSTANDING -0.2993
-4.9403 MIX -0.3010
-4.6392 MOBILE -0.3009
-4.3382 MODEL -0.2694
-4.1621 MODERN -0.2994
-4.9403 MOIST -0.3010
-4.4631 MOM -0.2999
-4.1621 MOMENT -0.2661
-4.9403 MONA -0.3010
-4.1621 MONDAY -0.2732
-4.9403 MONDAYS -0.3007
-4.9403 MONETARY -0.3010
-3.3840 MONEY -0.2549
-4.0952 MONITOR -0.2633
-4.9403 MONITORED -0.3006
-4.9403 MONKEY -0.2733
-4.6392 MONOPOLY -0.2733
-4.9403 MONROE -0.2982
-3.8263 MONTH -0.2663
-4.9403 MONTH'S -0.3010
-4.3382 MONTHLY -0.3009
-4.1621 MONTHS -0.2732
-4.9403 MONTMARTRE -0.3009
-4.9403 MOOD -0.2997
-4.9403 MOON -0.3010
-4.9403 MORAL -0.3010
-4.6392 MORALE -0.2704
-3.0652 MORE -0.2553
-4.9403 MOREOVER -0.2998
-3.9403 MORNING -0.2653
-4.6392 MORTGAGE -0.2715
-4.6392 MOSCOW -0.2733
-4.9403 MOSQUITO -0.3010
-3.5601 MOST -0.2695
-4.6392 MOTEL -0.2733
-4.6392 MOTHER -0.2732
-4.6392 MOTIVATE -0.3009
-4.9403 MOTIVATED -0.2733
-4.9403 MOTORCYCLE -0.2733
-4.6392 MOTORS -0.2994
-4.9403 MOTORS' -0.3009
-4.9403 MOTORWAY -0.2733
-4.9403 MOUNT -0.2733
-4.4631 MOUNTAIN -0.2733
-4.9403 MOUNTAINOUS -0.3010
-4.6392 MOUNTAINS -0.2733
-4.2413 MOUSE -0.2716
-4.9403 MOUSE' -0.3009
-4.9403 MOUSSE -0.2733
-4.3382 MOUTH -0.2728
-3.5978 MOVE -0.2529
-4.2413 MOVED -0.3005
-3.5978 MOVIE -0.2615
-4.4631 MOVIES -0.2732
-4.4631 MOVING -0.2982
-4.9403 MPH -0.2993
-4.3382 MR -0.3010
-4.6392 MRS -0.3010
-4.6392 MS -0.3010
-3.3962 MUCH -0.2533
-4.9403 MUFFLERS -0.2995
-4.9403 MULE -0.2733
-4.9403 MULES -0.2733
-4.9403 MULTI -0.3009
-4.9403 MULTIFUNCTIONAL -0.3010
-4.9403 MUMBAI -0.2733
-4.9403 MUNDANE -0.3009
-4.9403 MUNICH -0.2961
-4.3382 MURDER -0.2715
-4.6392 MUSCLE -0.3010
-4.0372 MUSEUM -0.2718
-4.4631 MUSHROOM -0.3010
-3.5601 MUSIC -0.2623
-4.9403 MUSICIANS -0.3009
-3.6850 MUST -0.2985
-4.9403 MUSTER -0.3010
-4.9403 MUTE -0.3010
-4.6392 MUTUALLY -0.3010
-2.5862 MY -0.2950
-3.9860 MYSELF -0.2733
-4.9403 MYTHS -0.3001
-4.9403 N -0.3010
-4.9403 NAH -0.2974
-4.9403 NAILED -0.2994
-3.9860 NAME -0.2677
-4.6392 NAME'S -0.3010
-4.9403 NAP -0.2733
-4.9403 NAPKIN -0.2995
-4.9403 NARCOTICS -0.3010
-4.6392 NATALIE -0.2732
-4.9403 NATE -0.3010
-4.9403 NATE'S -0.3007
-4.9403 NATIVE -0.3010
-4.4631 NATURAL -0.3010
-4.6392 NATURE -0.2731
-4.6392 NAUSEA -0.2717
-4.6392 NAUSEOUS -0.2717
-4.6392 NAUTICAL -0.3010
-4.6392 NAVIGATE -0.2664
-4.9403 NAVIGATING -0.2945
-4.9403 NAVIGATION -0.3010
-4.9403 NAVY -0.3010
-4.0372 NEAR -0.2931
-4.4631 NEARLY -0.2940
-4.9403 NEAT -0.2995
-4.6392 NECESSARY -0.2733
-3.0769 NEED -0.2513
-4.4631 NEEDED -0.2681
-4.9403 NEEDLES -0.3010
-3.9403 NEEDS -0.2606
-4.3382 NEGATIVE -0.2733
-4.9403 NEGATIVELY -0.3010
-4.9403 NEGLIGIBLE -0.2733
-4.9403 NEGOTIATE -0.2963
-4.4631 NEGOTIATIONS -0.2716
-4.9403 NEIGHBOR -0.2733
-4.3382 NEIGHBORHOOD -0.2703
-4.9403 NEIGHBORS -0.2996
-4.4631 NEITHER -0.2997
-4.9403 NEO -0.3010
-4.9403 NEPHEW -0.2999
-4.6392 NERD -0.2733
-4.9403 NERVE -0.3010
-4.6392 NERVES -0.2711
-4.4631 NERVOUS -0.3003
-4.9403 NEST -0.3010
-4.0952 NETWORK -0.2731
-4.9403 NETWORKING -0.3010
-3.5978 NEVER -0.2976
-3.0952 NEW -0.2705
-4.9403 NEWER -0.3009
-3.6850 NEWS -0.2702
-4.6392 NEWSPAPER -0.3010
-3.3275 NEXT -0.2658
-4.9403 NGC -0.3010
-4.9403 NIAGARA -0.3010
-3.5978 NICE -0.2663
-4.6392 NIECE -0.2999
-3.6615 NIGHT -0.2637
-4.9403 NIGHTCLUB -0.2733
-4.3382 NIGHTS -0.2733
-3.6850 NINE -0.2621
-4.6392 NINER -0.2733
-4.3382 NINETEEN -0.2733
-4.9403 NINETEENTH -0.3004
-4.3382 NINETY -0.2731
-4.9403 NINTH -0.2733
-3.1078 NO -0.2519
-4.9403 NOBLE -0.3010
-4.4631 NOBODY -0.3004
-4.3382 NOISE -0.2716
-4.4631 NOISY -0.2729
-4.9403 NOMINATE -0.3010
-4.9403 NONETHELESS -0.3009
-4.9403 NONSMOKING -0.3009
-4.9403 NONVIOLENCE -0.2733
-4.9403 NOODLES -0.2996
-4.9403 NOPE -0.2733
-4.4631 NORMAL -0.2680
-4.9403 NORTH -0.3010
-4.2413 NOSE -0.2717
-4.9403 NOSY -0.2733
-2.8067 NOT -0.2358
-4.3382 NOTE -0.2716
-4.9403 NOTEBOOK -0.2733
-4.9403 NOTED -0.2993
-4.4631 NOTES -0.2717
-3.8611 NOTHING -0.2929
-4.4631 NOTICE -0.2684
-4.6392 NOTICED -0.2993
-4.9403 NOTICES -0.3010
-4.9403 NOTICING -0.2999
-4.9403 NOUGHT -0.3009
-4.3382 NOVEL -0.2696
-4.4631 NOVEMBER -0.2733
-3.4779 NOW -0.2632
-4.9403 NUCLEAR -0.3010
-3.5601 NUMBER -0.2676
-4.9403 NUMBERS -0.3009
-4.9403 NURSE -0.2733
-4.9403 NURSING -0.2982
-4.9403 NUTS -0.2733
-4.9403 NUTSHELL -0.2733
-4.1621 O'CLOCK -0.2714
-4.6392 OAK -0.3009
-4.9403 OATH -0.2733
-4.9403 OBJECTIVE -0.3010
-4.9403 OBJECTIVES -0.2733
-4.9403 OBJECTS -0.2733
-4.9403 OBLIGATIONS -0.2733
-4.9403 OBSESSION -0.3003
-4.9403 OBSTACLE -0.2733
-4.2413 OBVIOUS -0.2664
-4.9403 OBVIOUSLY -0.2945
-4.9403 OCCASIONALLY -0.2974
-4.9403 OCCUR -0.3006
-4.6392 OCCURRED -0.2681
-4.9403 OCCURS -0.3007
-4.2413 OCEAN -0.2733
-4.3382 OCTOBER -0.3008
-4.6392 ODD -0.2996
-2.3243 OF -0.2332
-3.7098 OFF -0.2479
-4.9403 OFFENDING -0.2971
-4.3382 OFFENSIVE -0.2729
-3.6392 OFFER -0.2509
-4.3382 OFFERED -0.2966
-4.9403 OFFERS -0.2963
-3.7098 OFFICE -0.2695
-4.3382 OFFICER -0.2733
-4.9403 OFFICERS -0.2733
-4.9403 OFFICES -0.2733
-4.9403 OFFS -0.2996
-4.9403 OFFSITE -0.2733
-3.9860 OFTEN -0.2989
-3.8263 OH -0.2919
-3.7642 OIL -0.2686
-4.9403 OILS -0.2733
-3.5978 OK -0.2641
-4.9403 OK' -0.2733
-3.8263 OKAY -0.2637
-3.7361 OLD -0.2661
-4.6392 OLDER -0.2733
-2.5655 ON -0.2317
-4.6392 ONBOARD -0.2733
-3.8989 ONCE -0.2667
-2.9191 ONE -0.2469
-4.6392 ONES -0.2717
-4.9403 ONGOING -0.3010
-3.7941 ONLINE -0.2731
-3.5253 ONLY -0.2675
-4.6392 ONTO -0.3005
-4.1621 OPEN -0.2921
-4.6392 OPENED -0.2733
-4.4631 OPENING -0.2945
-4.6392 OPERA -0.2733
-4.9403 OPERATING -0.3010
-4.3382 OPERATIONS -0.2724
-4.9403 OPIATES -0.2996
-4.0372 OPINION -0.2709
-4.6392 OPPORTUNITY -0.2681
-4.6392 OPPOSED -0.2961
-4.9403 OPPOSITE -0.2945
-4.6392 OPTICAL -0.3010
-4.4631 OPTIMISTIC -0.2733
-4.9403 OPTIMIZATION -0.2982
-4.4631 OPTION -0.2727
-4.3382 OPTIONS -0.2733
-3.2413 OR -0.2844
-4.9403 ORANGE -0.3010
-4.9403 ORANGES -0.2733
-4.9403 ORCHESTRA -0.3010
-4.0372 ORDER -0.2679
-4.9403 ORDINARILY -0.3006
-4.9403 ORGANIC -0.3010
-4.4631 ORGANIZATION -0.2733
-4.9403 ORGANIZATIONAL -0.3010
-4.9403 ORGANIZE -0.2963
-4.4631 ORGANIZED -0.2733
-4.9403 ORGANIZER -0.2733
-4.6392 ORGANIZES -0.2933
-4.9403 ORIENTED -0.3010
-4.9403 ORIGINAL -0.2733
-4.9403 ORIGINS -0.2990
-4.9403 ORNATE -0.3010
-4.9403 ORSAY -0.2733
-4.6392 OSAKA -0.2733
-4.4631 OSCAR -0.2995
-3.5601 OTHER -0.2714
-4.0952 OTHERS -0.2718
-4.9403 OTHERWISE -0.2945
-4.0952 OUGHT -0.2961
-2.9812 OUR -0.2969
-3.1142 OUT -0.2447
-4.4631 OUTDOOR -0.3010
-4.6392 OUTFIT -0.2733
-4.6392 OUTGOING -0.2966
-4.9403 OUTLINES -0.2733
-4.4631 OUTLOOK -0.2704
-4.6392 OUTRAGEOUS -0.2733
-4.0372 OUTSIDE -0.2657
-4.9403 OUTSOURCING -0.2733
-4.9403 OUTSTANDING -0.2993
-3.3962 OVER -0.2486
-4.9403 OVERBOARD -0.2733
-4.9403 OVERCOME -0.3002
-4.9403 OVERDOSE -0.3009
-4.9403 OVERNIGHT -0.2733
-4.9403 OVERSEAS -0.3010
-4.9403 OVERSTAYING -0.2963
-4.9403 OVERTIME -0.3006
-4.9403 OVERUSE -0.3010
-4.4631 OVERWEIGHT -0.2733
-4.9403 OVERWHELMING -0.2733
-4.9403 OVERWORKING -0.3001
-4.9403 OWE -0.3009
-4.9403 OWEN'S -0.3010
-4.9403 OWING -0.2961
-3.8611 OWN -0.3004
-4.9403 OWNING -0.2999
-4.3382 OYSTERS -0.2681
-4.6392 P -0.3010
-4.9403 P.M -0.3004
-4.9403 PA -0.3010
-4.9403 PACED -0.2733
-4.9403 PACK -0.2733
-4.4631 PACKAGE -0.2704
-4.9403 PACKAGED -0.2733
-4.9403 PACKAGING -0.2982
-4.6392 PACKED -0.2733
-4.9403 PAD -0.2733
-4.0372 PAGE -0.2656
-4.4631 PAID -0.2720
-4.9403 PAIGE -0.3010
-4.6392 PAIN -0.2992
-4.9403 PAINT -0.3003
-4.4631 PAINTED -0.3006
-4.1621 PAINTING -0.2733
-4.9403 PAINTINGS -0.2733
-4.9403 PAM -0.3008
-4.9403 PANDA -0.2733
-4.9403 PANDAS -0.3008
-4.9403 PANDEMIC -0.2733
-4.6392 PANELS -0.2733
-4.9403 PANIC -0.3008
-3.9860 PANTS -0.2712
-4.6392 PAPA -0.3010
-4.4631 PAPER -0.2993
-4.6392 PARACHUTE -0.2733
-4.9403 PARADE -0.3003
-4.9403 PARAMEDIC -0.3010
-4.9403 PARANOIA -0.2733
-4.9403 PARDON -0.3002
-4.9403 PARENTHESES -0.2733
-4.4631 PARENTS -0.2719
-4.3382 PARIS -0.2717
-3.7941 PARK -0.2702
-4.2413 PARKING -0.2731
-4.9403 PARROT -0.2733
-4.9403 PARROTS -0.2733
-3.7361 PART -0.2681
-4.9403 PARTICIPANT -0.2733
-4.9403 PARTICIPATE -0.2993
-4.9403 PARTICULAR -0.3010
-4.9403 PARTICULARLY -0.3003
-4.9403 PARTICULARS -0.2733
-4.9403 PARTIES -0.2733
-4.1621 PARTNER -0.2676
-4.9403 PARTNERSHIP -0.3010
-4.6392 PARTS -0.2962
-3.7098 PARTY -0.2684
-4.1621 PASS -0.2638
-4.4631 PASSED -0.3009
-4.9403 PASSENGER -0.3010
-4.6392 PASSENGERS -0.2997
-4.9403 PASSING -0.3010
-4.9403 PASSIONATE -0.2995
-4.2413 PASSPORT -0.2729
-4.6392 PASSWORD -0.2733
-4.9403 PASSWORDS -0.3007
-4.9403 PAST -0.2945
-4.6392 PASTA -0.2733
-4.9403 PASTEL -0.3010
-4.9403 PASTELS -0.2733
-4.9403 PAT -0.3007
-4.3382 PATIENT -0.2711
-4.4631 PATIENTS -0.2988
-4.9403 PATIO -0.2733
-4.9403 PAUL -0.3009
-4.9403 PAUSE -0.2733
-4.9403 PAVEMENT -0.2733
-3.6180 PAY -0.2602
-4.3382 PAYCHECK -0.2680
-4.4631 PAYING -0.3002
-4.6392 PAYMENT -0.2733
-4.4631 PAYMENTS -0.2718
-4.9403 PAYS -0.2733
-4.9403 PCP -0.3009
-4.1621 PEACE -0.2694
-4.9403 PEACEFULLY -0.3010
-4.9403 PEAK -0.2993
-4.9403 PEAKED -0.3004
-4.9403 PEG -0.3008
-4.4631 PEN -0.2681
-4.9403 PENALTY -0.2733
-4.9403 PENCIL -0.2733
-4.9403 PENGUIN -0.2733
-4.6392 PENGUINS -0.2732
-3.0265 PEOPLE -0.2543
-4.9403 PEOPLE'S -0.3010
-4.4631 PER -0.3008
-3.5253 PERCENT -0.2648
-4.4631 PERFECT -0.2732
-4.9403 PERFECTLY -0.3010
-4.6392 PERFORMANCE -0.2729
-4.9403 PERFORMS -0.3008
-4.6392 PERHAPS -0.2996
-4.3382 PERIOD -0.2733
-4.6392 PERIODS -0.2733
-4.9403 PERISHABLE -0.2733
-4.6392 PERMANENT -0.3010
-4.9403 PERMIT -0.3006
-4.9403 PERSISTENT -0.3010
-3.8611 PERSON -0.2631
-4.1621 PERSONAL -0.2732
-4.9403 PERSONALITIES -0.3010
-4.9403 PERSONALITY -0.3010
-4.9403 PERSONALIZED -0.3010
-4.4631 PERSONALLY -0.2972
-4.9403 PERSPECTIVE -0.3009
-4.9403 PERSUADE -0.2971
-4.9403 PERSUADES -0.3010
-4.6392 PERTINENT -0.3010
-4.6392 PESSIMISTIC -0.2726
-4.6392 PET -0.3010
-4.9403 PETE -0.3010
-4.9403 PETER -0.3010
-4.9403 PETERSON -0.2733
-4.9403 PETRA -0.2733
-4.4631 PETRI -0.3010
-4.9403 PETRIFIED -0.2990
-4.6392 PETROL -0.2704
-4.9403 PETROLEUM -0.3010
-4.9403 PETS -0.2733
-4.9403 PETTY -0.3010
-4.9403 PHARMACIST -0.3010
-4.9403 PHARMACY -0.2961
-4.6392 PHASE -0.3006
-4.9403 PHASES -0.2733
-4.9403 PHISHING -0.3010
-4.6392 PHOBIA -0.2982
-3.6850 PHONE -0.2681
-4.2413 PHONES -0.2704
-4.9403 PHONOLOGY -0.2733
-4.9403 PHOTOGRAPHS -0.2733
-4.3382 PHOTOS -0.2667
-4.9403 PHYSICAL -0.3010
-4.9403 PHYSICALLY -0.3010
-4.9403 PHYSICS -0.2733
-4.9403 PIANO -0.2733
-4.9403 PICCHU -0.2733
-4.9403 PICK -0.3006
-4.9403 PICKED -0.3006
-4.9403 PICKING -0.2999
-4.9403 PICKS -0.3006
-4.9403 PICNIC -0.2733
-4.3382 PICTURE -0.2711
-4.9403 PICTURES -0.2733
-4.9403 PICTURESQUE -0.3010
-4.0952 PIE -0.2733
-4.3382 PIECE -0.2711
-4.9403 PIECES -0.3009
-4.9403 PIERCING -0.2733
-4.9403 PILL -0.3009
-4.9403 PILLS -0.2997
-4.4631 PILOT -0.3010
-4.2413 PINE -0.3008
-4.6392 PINK -0.3010
-4.9403 PINPOINT -0.3008
-4.9403 PIPELINE -0.2733
-4.9403 PIPES -0.2733
-4.9403 PITY -0.2996
-4.1621 PIZZA -0.2703
-3.7098 PLACE -0.2612
-4.3382 PLACES -0.2708
-4.9403 PLAIN -0.3009
-3.8989 PLAN -0.2650
-4.3382 PLANE -0.2733
-4.9403 PLANES -0.2993
-4.9403 PLANET -0.2733
-4.9403 PLANNED -0.2733
-4.3382 PLANNING -0.2943
-4.4631 PLANS -0.2733
-4.4631 PLANT -0.2733
-4.9403 PLANTING -0.3010
-4.9403 PLANTS -0.2993
-4.9403 PLASTIC -0.3010
-4.9403 PLATFORMS -0.2733
-4.9403 PLATITUDES -0.2995
-3.4931 PLAY -0.2605
-4.4631 PLAYED -0.2997
-4.6392 PLAYER -0.2715
-4.3382 PLAYGROUND -0.2733
-4.0372 PLAYING -0.3002
-4.6392 PLAYS -0.2963
-4.9403 PLEASANT -0.3010
-3.1999 PLEASE -0.2701
-4.9403 PLEASED -0.2733
-4.2413 PLEASURE -0.2728
-4.4631 PLOT -0.2979
-4.9403 PLOTS -0.3010
-4.6392 PLUG -0.2945
-4.6392 PLUMBING -0.2733
-4.9403 PLUMMETING -0.2993
-4.6392 PLUS -0.2994
-4.6392 PM -0.3000
-4.9403 PMR -0.3010
-4.9403 PODCASTS -0.3008
-3.5601 POINT -0.2531
-4.9403 POINTERS -0.3003
-4.9403 POINTING -0.3004
-3.9403 POINTS -0.2668
-4.1621 POLICE -0.2733
-4.0952 POLICY -0.2621
-4.6392 POLITICAL -0.3010
-4.9403 POLITICIANS -0.3010
-4.4631 POLITICS -0.2993
-4.2413 POLLUTION -0.2705
-4.6392 POLYESTER -0.2733
-4.9403 POMPIDOU -0.3000
-4.3382 POOL -0.2733
-4.6392 POOR -0.2729
-4.9403 POP -0.2733
-4.9403 POPCORN'S -0.3010
-4.9403 POPPY -0.3010
-4.4631 POPULAR -0.2720
-4.9403 POPULARITY -0.2997
-4.9403 POPULATION -0.3010
-4.3382 PORT -0.2989
-4.9403 PORTABLE -0.3010
-4.9403 PORTFOLIO -0.2998
-4.9403 PORTS -0.2993
-4.9403 POSES -0.2733
-3.7941 POSITION -0.2623
-4.9403 POSITIONING -0.3010
-4.6392 POSITIONS -0.2988
-3.9860 POSITIVE -0.2731
-4.6392 POSSIBILITIES -0.2719
-4.4631 POSSIBILITY -0.2959
-4.1621 POSSIBLE -0.2714
-4.9403 POSSIBLY -0.3009
-4.3382 POST -0.2993
-4.1621 POTATO -0.2733
-4.4631 POTATOES -0.2702
-4.4631 POTENTIAL -0.2681
-4.9403 POVERTY -0.2733
-4.1621 POWER -0.2710
-4.6392 POWERBOAT -0.3010
-4.9403 POWERBOATS -0.3010
-4.4631 POWERED -0.3010
-4.3382 POWERFUL -0.2716
-4.9403 POWERS -0.3006
-4.4631 PR -0.3010
-4.9403 PRACTICAL -0.3010
-4.6392 PRACTICE -0.2722
-4.9403 PRAGUE -0.2733
-4.9403 PREACH -0.2733
-4.9403 PREBBLE -0.2982
-4.9403 PREBBLE'S -0.2733
-4.9403 PRECAUTIONS -0.3010
-4.9403 PRECEDENT -0.3010
-4.9403 PREDICTABLE -0.2733
-4.6392 PREDICTING -0.2948
-4.9403 PREDICTION -0.2733
-4.9403 PREDICTIONS -0.2733
-4.1621 PREFER -0.2897
-4.9403 PREFERRED -0.2997
-4.4631 PREFERS -0.3010
-4.6392 PREGNANT -0.2733
-4.6392 PRELIMINARY -0.3009
-4.4631 PREPARE -0.2965
-4.9403 PREPARED -0.2961
-4.9403 PRESCRIBING -0.3010
-4.2413 PRESCRIPTION -0.2719
-4.4631 PRESENT -0.2993
-4.3382 PRESENTATION -0.2732
-4.9403 PRESENTER -0.3008
-4.2413 PRESIDENT -0.2732
-4.4631 PRESS -0.2998
-4.2413 PRESSURE -0.2657
-4.6392 PRETEND -0.2996
-3.8263 PRETTY -0.3004
-4.9403 PREVENT -0.3009
-4.6392 PREVIOUS -0.3008
-3.5785 PRICE -0.2615
-4.9403 PRICED -0.2733
-3.8989 PRICES -0.2643
-4.9403 PRICING -0.2733
-4.9403 PRIDE -0.2993
-4.6392 PRIMARY -0.3009
-4.6392 PRINCIPLES -0.2711
-4.9403 PRINT -0.2993
-4.6392 PRINTED -0.3007
-4.1621 PRINTER -0.2733
-4.9403 PRINTING -0.3010
-4.9403 PRIOR -0.2961
-4.2413 PRIORITY -0.2704
-4.9403 PRISON -0.2733
-4.9403 PRISTINE -0.3010
-4.9403 PRIVACY -0.3003
-4.4631 PRIVATE -0.3009
-4.9403 PROACTIVE -0.2733
-4.0372 PROBABLY -0.2935
-4.9403 PROBATION -0.3007
-3.4489 PROBLEM -0.2635
-3.7642 PROBLEMS -0.2716
-4.9403 PROCEDURE -0.2997
-4.6392 PROCEDURES -0.2719
-4.9403 PROCEED -0.2733
-4.3382 PROCESS -0.2717
-4.9403 PRODUCE -0.2733
-4.9403 PRODUCED -0.3010
-4.2413 PRODUCT -0.2731
-4.0952 PRODUCTION -0.2683
-4.2413 PRODUCTIVE -0.2731
-4.9403 PRODUCTIVITY -0.2733
-4.0952 PRODUCTS -0.2665
-4.9403 PROFESSIONAL -0.3010
-4.9403 PROFESSIONALISM -0.2995
-4.9403 PROFITABLY -0.2733
-3.8263 PROFITS -0.2699
-4.9403 PROFOUND -0.3010
-4.9403 PROFUSELY -0.2733
-4.6392 PROGRAM -0.2994
-4.9403 PROGRAMMING -0.2733
-4.9403 PROGRAMS -0.2733
-4.9403 PROGRESS -0.3010
-4.9403 PROGRESSING -0.2733
-4.9403 PROGRESSIVE -0.3010
-4.6392 PROHIBITED -0.2733
-3.6850 PROJECT -0.2698
-4.9403 PROJECTED -0.2995
-4.6392 PROJECTIONS -0.2720
-4.9403 PROJECTOR -0.2733
-4.9403 PROJECTORS -0.2996
-4.6392 PROJECTS -0.2719
-4.4631 PROMISE -0.2964
-4.6392 PROMOTE -0.2944
-4.2413 PROMOTED -0.2662
-4.3382 PROMOTION -0.2726
-4.9403 PROPER -0.2733
-4.0952 PROPOSE -0.2698
-4.6392 PROPOSING -0.2967
-4.9403 PROS -0.2995
-4.4631 PROTECT -0.2943
-4.4631 PROTECTIONISM -0.2693
-4.9403 PROTECTIVE -0.3010
-4.9403 PROTECTOR -0.3009
-4.9403 PROTEIN -0.2733
-4.9403 PROTOCOLS -0.2996
-4.9403 PROTOTYPE -0.3010
-4.9403 PROUD -0.2990
-4.9403 PROVE -0.3010
-4.4631 PROVIDE -0.2733
-4.6392 PROVIDED -0.2994
-4.9403 PROVIDER -0.2733
-4.9403 PROVIDERS -0.2733
-4.6392 PROVIDES -0.3009
-3.9860 PUBLIC -0.2732
-4.9403 PUBLICITY -0.3010
-4.9403 PUDDING -0.2733
-4.9403 PULL -0.2994
-4.9403 PULLS -0.3007
-4.9403 PUMPED -0.3006
-4.9403 PUNISHED -0.2733
-4.9403 PUNK -0.2733
-4.9403 PURCHASE -0.2963
-4.9403 PURCHASES -0.3010
-4.9403 PURELY -0.2993
-4.9403 PURPLE -0.3010
-4.2413 PURPOSE -0.2990
-4.9403 PURPOSES -0.2733
-4.9403 PUSH -0.2997
-4.9403 PUSHER -0.2961
-4.6392 PUSHING -0.2733
-3.8263 PUT -0.2956
-4.9403 PUTTING -0.2999
-4.4631 PUZZLE -0.2699
-4.6392 PUZZLES -0.2732
-4.6392 PYRAMID -0.2704
-4.9403 PYRAMIDS -0.2733
-4.9403 QDE -0.3010
-4.9403 QUALIFIED -0.3010
-4.2413 QUALITY -0.2711
-4.9403 QUANTITATIVE -0.3010
-4.9403 QUANTITIES -0.3004
-4.9403 QUANTITY -0.2995
-4.0952 QUARTER -0.2733
-4.9403 QUARTERLY -0.3010
-4.9403 QUEBEC -0.2733
-4.9403 QUEST -0.2961
-3.7642 QUESTION -0.2717
-4.9403 QUESTIONED -0.3006
-4.9403 QUESTIONING -0.2733
-4.9403 QUESTIONNAIRES -0.2995
-3.9403 QUESTIONS -0.2726
-4.9403 QUESTORMING -0.2982
-4.4631 QUICK -0.3010
-3.8989 QUICKLY -0.2674
-4.6392 QUIET -0.3005
-4.9403 QUIETLY -0.2733
-4.3382 QUIT -0.2995
-3.8263 QUITE -0.2957
-4.9403 QUITTING -0.2999
-4.9403 QUOTATION -0.3010
-4.6392 RABBIT -0.2704
-4.9403 RACED -0.3009
-4.6392 RACING -0.2733
-4.9403 RACKING -0.2733
-4.9403 RADICAL -0.3010
-4.6392 RAFTING -0.2733
-4.9403 RAFTS -0.2733
-4.9403 RAGE -0.2733
-4.6392 RAIN -0.2715
-4.9403 RAINFOREST -0.2733
-4.6392 RAINING -0.2995
-4.9403 RAINWATER -0.2733
-4.9403 RAINY -0.2733
-4.4631 RAISE -0.3006
-4.9403 RAISED -0.3007
-4.9403 RAMP -0.2733
-4.6392 RAN -0.3007
-4.9403 RANDOM -0.3010
-4.6392 RANG -0.2733
-4.4631 RANGE -0.2711
-4.9403 RANKING -0.3010
-4.9403 RAPIDLY -0.2733
-4.9403 RAPPORT -0.3003
-4.9403 RARE -0.3008
-4.9403 RARELY -0.2982
-4.9403 RAT -0.3010
-4.3382 RATE -0.2731
-4.2413 RATHER -0.3001
-4.9403 RATING -0.2733
-4.9403 RATINGS -0.2733
-4.9403 RAW -0.3010
-4.9403 RAY -0.2733
-4.9403 RE -0.3010
-4.6392 REACH -0.3002
-4.9403 REACHED -0.2963
-4.9403 REACT -0.3007
-3.9860 READ -0.2866
-4.9403 READER -0.2733
-4.9403 READILY -0.3010
-4.2413 READING -0.2607
-4.0372 READY -0.2667
-4.0372 REAL -0.2731
-4.3382 REALISTIC -0.2733
-4.9403 REALISTICALLY -0.3010
-4.6392 REALITY -0.2997
-4.9403 REALIZED -0.3008
-3.0482 REALLY -0.2591
-4.9403 REALTOR -0.2733
-4.9403 REASON -0.2996
-4.0952 REASONABLE -0.2730
-4.9403 REASONABLY -0.3010
-4.9403 REASONS -0.2733
-4.9403 REASSURE -0.2971
-4.3382 RECAP -0.2652
-4.2413 RECEIPT -0.2728
-4.9403 RECEIVE -0.2945
-4.6392 RECEIVED -0.2963
-4.9403 RECENT -0.3010
-4.9403 RECENTLY -0.2733
-4.9403 RECEPTIONISTS -0.3010
-4.9403 RECESSION -0.2993
-4.9403 RECESSIONS -0.2993
-4.9403 RECHARGEABLE -0.3010
-4.9403 RECIPROCALLY -0.2733
-4.9403 RECLINING -0.3010
-4.9403 RECOGNIZED -0.3003
-4.0952 RECOMMEND -0.2595
-4.9403 RECOMMENDATION -0.2733
-4.6392 RECOMMENDATIONS -0.2733
-4.4631 RECOMMENDED -0.2994
-4.9403 RECONSIDER -0.3006
-4.9403 RECORDS -0.2733
-4.9403 RECOVERING -0.3007
-4.9403 RECRUIT -0.3010
-4.6392 RECRUITMENT -0.2982
-4.9403 RECYCLE -0.2994
-4.6392 RECYCLED -0.2994
-4.6392 RECYCLING -0.3005
-4.0952 RED -0.2732
-4.6392 REDUCE -0.2998
-4.6392 REEF -0.2733
-4.6392 REFINED -0.3009
-4.6392 REFINERY -0.2995
-4.9403 REFINISH -0.2945
-4.9403 REFLECTIVE -0.2733
-4.9403 REFLECTS -0.3007
-4.9403 REFLEX -0.3010
-4.9403 REFLEXOLOGY -0.3010
-4.9403 REFORMING -0.3006
-4.9403 REFRIGERATED -0.3010
-4.9403 REFRIGERATOR -0.2733
-4.9403 REFUSES -0.2961
-4.6392 REGARD -0.2961
-4.0952 REGARDING -0.2932
-4.9403 REGARDS -0.2961
-4.9403 REGENCY -0.3009
-4.9403 REGION -0.2997
-4.9403 REGIONAL -0.3010
-4.9403 REGIONS -0.2733
-4.9403 REGIS -0.2733
-4.4631 REGRET -0.2960
-4.6392 REGRETS -0.2726
-4.9403 REGULARLY -0.3003
-4.6392 REGULATIONS -0.2733
-4.9403 REHEARSAL -0.3010
-4.9403 REHIRED -0.3003
-4.9403 REIMBURSEMENT -0.2997
-4.4631 REITERATE -0.2721
-4.9403 REJUVENATING -0.2995
-4.9403 RELATE -0.2961
-4.9403 RELATED -0.3010
-4.9403 RELATING -0.3010
-4.6392 RELATIONSHIP -0.2733
-4.9403 RELATIVE -0.2733
-4.4631 RELATIVELY -0.3007
-4.2413 RELAX -0.2667
-4.9403 RELAXATION -0.2733
-4.9403 RELAXED -0.2995
-4.9403 RELAXING -0.2999
-4.3382 RELEASE -0.2732
-4.9403 RELEVANCE -0.2990
-4.2413 RELIABLE -0.2717
-4.9403 RELIEF -0.3010
-4.9403 RELIEVE -0.2963
-4.9403 RELIGION -0.2733
-4.9403 RELOCATING -0.2961
-4.9403 RELUCTANT -0.2961
-4.6392 RELY -0.2998
-4.6392 REMAIN -0.3010
-4.9403 REMAINED -0.3010
-4.9403 REMEDY -0.3010
-3.9860 REMEMBER -0.2942
-4.9403 REMIND -0.3002
-4.4631 REMINDS -0.3002
-4.6392 REMOVED -0.3007
-4.9403 RENAISSANCE -0.2733
-4.9403 RENEE -0.3007
-4.4631 RENEWABLE -0.2733
-4.9403 RENEWAL -0.2733
-4.3382 RENT -0.2691
-4.6392 RENTAL -0.2733
-4.9403 REORGANIZING -0.2945
-4.9403 REPAINTING -0.2945
-4.9403 REPAIRS -0.3010
-4.2413 REPEAT -0.2984
-4.9403 REPEATED -0.3010
-4.9403 REPEATEDLY -0.2733
-4.9403 REPEATING -0.2995
-4.9403 REPERCUSSIONS -0.2733
-4.6392 REPLACE -0.2945
-4.9403 REPLACED -0.3009
-4.9403 REPLICA -0.2733
-4.3382 REPORT -0.2721
-4.9403 REPORTED -0.2993
-4.9403 REPORTER -0.2733
-4.6392 REPORTS -0.2960
-4.9403 REPRESENTING -0.3010
-4.9403 REPRODUCE -0.2733
-4.9403 REPUBLIC -0.2990
-4.4631 REPUTATION -0.2719
-4.6392 REQUEST -0.2733
-4.9403 REQUIRE -0.3010
-4.9403 REQUIRED -0.2961
-4.9403 REQUIRES -0.3010
-4.9403 RESCHEDULED -0.3010
-4.6392 RESCUE -0.3010
-4.3382 RESEARCH -0.2732
-4.0372 RESERVATION -0.2687
-4.9403 RESERVATIONS -0.2733
-4.9403 RESERVE -0.2994
-4.6392 RESERVES -0.2730
-4.4631 RESIDENT -0.2733
-4.9403 RESIGN -0.3008
-4.6392 RESILIENT -0.2733
-4.9403 RESOLVED -0.3006
-4.6392 RESORT -0.2733
-4.3382 RESPECT -0.2969
-4.9403 RESPONSE -0.2733
-4.2413 RESPONSIBILITY -0.2650
-4.2413 RESPONSIBLE -0.2720
-4.0952 REST -0.2710
-4.6392 RESTATE -0.2991
-3.6850 RESTAURANT -0.2687
-4.9403 RESTORE -0.3010
-4.9403 RESTOWED -0.2733
-4.9403 RESTROOM -0.2982
-4.9403 RESTROOMS -0.2733
-4.4631 RESULT -0.2989
-4.0952 RESULTS -0.2707
-4.9403 RESUME -0.3009
-4.9403 RETIRE -0.2733
-4.6392 RETIRED -0.3006
-4.3382 RETIREMENT -0.2733
-4.9403 RETIRING -0.3010
-4.2413 RETURN -0.2714
-4.6392 RETURNING -0.2721
-4.9403 RETURNS -0.2733
-4.9403 REUSE -0.3009
-4.9403 REVENUE -0.3010
-4.9403 REVENUES -0.2997
-4.9403 REVERSE -0.3010
-4.0952 REVIEW -0.2635
-4.9403 REVITALIZED -0.2733
-4.9403 REVITALIZING -0.2945
-4.9403 REVOLUTIONIZE -0.2945
-4.9403 REVOLUTIONIZED -0.2945
-4.9403 REWARD -0.2733
-4.9403 REWARDED -0.2733
-4.4631 REWARDING -0.2717
-4.9403 REWARDS -0.3010
-4.9403 RHINOCEROS -0.2733
-4.9403 RHINOS -0.2996
-4.0952 RICE -0.2707
-4.9403 RICH -0.3010
-4.9403 RICHTER -0.3010
-4.9403 RICK'S -0.3007
-4.3382 RIDE -0.2870
-4.6392 RIDING -0.2720
-4.9403 RIG -0.3010
-3.2413 RIGHT -0.2503
-4.9403 RIGID -0.3010
-4.4631 RING -0.2717
-4.6392 RINGS -0.2733
-4.9403 RIO -0.2961
-4.4631 RISE -0.2710
-4.6392 RISEN -0.3010
-4.3382 RISING -0.2733
-4.3382 RISK -0.2691
-4.9403 RISKS -0.2733
-4.9403 RIVENIA -0.2733
-4.9403 RIVER -0.2733
-4.6392 RO -0.3010
-3.7941 ROAD -0.2712
-4.9403 ROAST -0.3010
-4.9403 ROBBERY -0.2733
-4.9403 ROBBING -0.3010
-4.6392 ROBOT -0.2722
-4.9403 ROBOTS -0.2996
-4.2413 ROCK -0.2733
-4.9403 ROCKETED -0.2733
-4.9403 ROCKS -0.2733
-4.9403 ROCKY -0.3010
-4.9403 ROGER -0.3010
-4.4631 ROLE -0.2972
-4.9403 ROLES -0.2733
-4.4631 ROLL -0.2940
-4.9403 ROLLING -0.2733
-4.6392 ROMANCE -0.2720
-4.9403 ROMANTIC -0.3009
-4.9403 ROMEO -0.3010
-4.2413 ROOF -0.2731
-4.9403 ROOFER -0.2733
-4.4631 ROOFS -0.2733
-3.6180 ROOM -0.2596
-4.9403 ROOM'S -0.3008
-4.9403 ROOMIER -0.3010
-4.9403 ROOMMATE -0.2733
-4.3382 ROOMS -0.2721
-4.9403 ROOT -0.2990
-4.9403 ROPES -0.2982
-4.1621 ROSE -0.2952
-4.9403 ROUTER -0.2733
-4.9403 ROUTINE -0.2733
-4.9403 ROYAL -0.3008
-4.4631 RUDE -0.2722
-4.9403 RUDENESS -0.3008
-4.9403 RUG -0.2733
-4.9403 RUGGED -0.3010
-4.9403 RULER -0.2990
-4.2413 RULES -0.2703
-4.9403 RUMORS -0.2733
-4.0372 RUN -0.2613
-4.9403 RUNNER' -0.3005
-3.9860 RUNNING -0.2601
-4.4631 RUNNY -0.3010
-4.9403 RUNS -0.3007
-4.9403 RUNWAY -0.2733
-4.9403 RURAL -0.3006
-4.6392 RUSH -0.2733
-4.9403 RUSSIA -0.2733
-4.9403 RUSSIAN -0.2733
-4.2413 S -0.2718
-4.3382 SAD -0.2700
-4.0952 SAFE -0.2678
-4.6392 SAFEGUARD -0.2945
-4.9403 SAFELY -0.2733
-4.6392 SAFER -0.3003
-3.9403 SAFETY -0.2731
-4.9403 SAHARAN -0.3010
-3.7642 SAID -0.2563
-4.1621 SALAD -0.2704
-4.9403 SALADS -0.2733
-4.9403 SALARIES -0.2733
-4.6392 SALARY -0.2733
-3.5785 SALES -0.2656
-4.9403 SALESMAN -0.3009
-4.9403 SALINE -0.3010
-4.9403 SALINITY -0.3006
-4.4631 SALLY -0.2708
-4.9403 SALMON -0.2733
-4.9403 SALTY -0.2733
-4.9403 SALVADOR -0.2733
-4.4631 SAM -0.2996
-4.9403 SAMANTHA -0.2733
-4.0372 SAME -0.3006
-4.9403 SAN -0.3010
-4.4631 SANDALS -0.2719
-4.9403 SANDWICH -0.2733
-4.9403 SANDWICHES -0.2733
-4.4631 SARAH -0.3010
-4.9403 SARAH'S -0.3006
-4.9403 SATIRE -0.3006
-4.6392 SATISFACTION -0.2986
-4.9403 SATISFACTION'S -0.3008
-4.2413 SATURDAY -0.2721
-4.9403 SATURDAYS -0.3009
-3.9403 SAVE -0.2663
-4.9403 SAVING -0.3009
-4.9403 SAVINGS -0.2733
-3.9860 SAW -0.2609
-4.9403 SAXOPHONE -0.2733
-3.4218 SAY -0.2367
-3.6850 SAYING -0.2631
-4.0952 SAYS -0.2910
-4.6392 SCALE -0.2711
-4.9403 SCAM -0.3010
-4.9403 SCANNER -0.2733
-4.9403 SCARCE -0.2733
-4.6392 SCARE -0.3006
-4.3382 SCARED -0.2990
-4.6392 SCARVES -0.2719
-4.9403 SCARY -0.3010
-4.9403 SCENE -0.2733
-4.9403 SCENERY -0.2733
-4.9403 SCENIC -0.3010
-4.2413 SCHEDULE -0.2696
-4.9403 SCHEDULED -0.2997
-4.6392 SCHEME -0.2733
-4.6392 SCHEMES -0.2987
-3.8989 SCHOOL -0.2658
-4.9403 SCHOOLS -0.2733
-4.3382 SCIENCE -0.2733
-4.9403 SCISSORS -0.2733
-4.9403 SCOPE -0.2990
-4.6392 SCORE -0.2962
-4.9403 SCORED -0.2963
-4.6392 SCRAMBLE -0.2916
-4.3382 SCREEN -0.2730
-4.9403 SCREWDRIVER -0.2733
-4.9403 SCREWED -0.3006
-4.9403 SCROLL -0.3009
-4.9403 SCULPTURE -0.2733
-4.6392 SEA -0.2733
-4.4631 SEAL -0.2664
-4.9403 SEALS -0.2996
-4.9403 SEAN -0.2995
-4.6392 SEARCH -0.2997
-4.6392 SEASON -0.2704
-4.9403 SEASONS -0.2996
-4.6392 SEAT -0.2733
-4.9403 SEATBELT -0.2733
-4.4631 SEATING -0.2733
-4.9403 SEATTLE -0.2995
-4.9403 SEB -0.3007
-4.0372 SECOND -0.2731
-4.9403 SECONDS -0.2733
-4.6392 SECRET -0.2717
-4.6392 SECRETARY -0.2733
-4.4631 SECTION -0.2720
-4.9403 SECTOR -0.2997
-4.9403 SECURE -0.2733
-4.9403 SECURING -0.2945
-4.4631 SECURITY -0.3007
-3.1274 SEE -0.2428
-4.9403 SEED -0.2733
-4.9403 SEEDS -0.2998
-4.4631 SEEING -0.2967
-4.9403 SEEK -0.2945
-4.9403 SEEKER -0.2997
-4.0952 SEEM -0.2958
-4.3382 SEEMED -0.2955
-4.9403 SEEMINGLY -0.3010
-3.7098 SEEMS -0.2607
-3.9860 SEEN -0.2880
-4.9403 SEGMENT -0.2733
-4.9403 SELDOM -0.3010
-4.3382 SELF -0.3008
-4.2413 SELL -0.2712
-4.6392 SELLING -0.3004
-4.9403 SEMICOLON -0.2733
-4.9403 SEND -0.2963
-4.9403 SENDING -0.3009
-4.6392 SENIOR -0.3010
-4.9403 SENIORS -0.2733
-4.9403 SENSATIONAL -0.2733
-4.1621 SENSE -0.2940
-4.9403 SENSITIVE -0.3009
-4.9403 SENT -0.3007
-4.6392 SENTENCED -0.2948
-4.6392 SEPTEMBER -0.2733
-4.9403 SERGEANT -0.2733
-4.9403 SERIAL -0.3009
-4.2413 SERIOUS -0.2729
-4.4631 SERIOUSLY -0.2732
-4.4631 SERVE -0.3010
-4.9403 SERVED -0.3005
-3.9860 SERVICE -0.2702
-4.6392 SERVICES -0.2732
-3.9860 SET -0.2815
-4.9403 SETS -0.3007
-3.5978 SEVEN -0.2720
-4.6392 SEVENTEEN -0.2732
-4.6392 SEVENTEENTH -0.2733
-4.9403 SEVENTH -0.2733
-3.9403 SEVENTY -0.2998
-4.3382 SEVERAL -0.3010
-4.9403 SEVERE -0.3010
-4.9403 SEWED -0.3006
-4.9403 SEWING -0.2733
-4.6392 SEX -0.3010
-4.9403 SHAKE -0.2998
-4.6392 SHAKING -0.2715
-4.9403 SHALL -0.2996
-4.6392 SHALLOW -0.2733
-4.6392 SHAME -0.2733
-4.3382 SHAPE -0.2733
-4.6392 SHAPES -0.2733
-4.0372 SHARE -0.2655
-4.9403 SHAREHOLDERS -0.2733
-4.9403 SHAREHOLDERS' -0.3009
-4.6392 SHARES -0.2733
-4.9403 SHARING -0.3009
-4.9403 SHARPLY -0.2993
-4.9403 SHAW -0.2733
-4.9403 SHAWN -0.3006
-2.7584 SHE -0.2590
-4.3382 SHE'D -0.2992
-4.4631 SHE'LL -0.3008
-3.2079 SHE'S -0.2875
-4.9403 SHELLS -0.3010
-4.9403 SHHH -0.3008
-4.9403 SHIFTED -0.2733
-4.3382 SHIP -0.2733
-3.9860 SHIRT -0.2694
-4.6392 SHIRTS -0.2715
-4.9403 SHOCK -0.2733
-4.9403 SHOCKING -0.2733
-4.9403 SHOE -0.3010
-3.9403 SHOES -0.2716
-4.9403 SHOOK -0.3006
-4.4631 SHOOT -0.2998
-4.3382 SHOP -0.2732
-4.1621 SHOPPING -0.2719
-4.9403 SHORE -0.2994
-3.8989 SHORT -0.2663
-4.9403 SHORTER -0.2733
-4.9403 SHOT -0.2733
-4.9403 SHOTS -0.2997
-3.2243 SHOULD -0.2854
-4.9403 SHOULDER -0.2733
-4.0952 SHOULDN'T -0.2981
-4.9403 SHOUT -0.3010
-3.7642 SHOW -0.2611
-4.9403 SHOWED -0.2971
-4.4631 SHOWER -0.2732
-4.9403 SHOWING -0.3010
-4.9403 SHOWN -0.2945
-4.2413 SHOWS -0.2926
-4.3382 SHRIMP -0.3010
-4.3382 SHUI -0.2661
-4.6392 SHUTTLE -0.2729
-4.9403 SHY -0.2733
-4.1621 SICK -0.2921
-4.3382 SIDE -0.2711
-4.6392 SIDEWALK -0.2733
-4.9403 SIERRA -0.2733
-4.9403 SIGHT -0.2990
-4.9403 SIGHTS -0.3009
-4.9403 SIGHTSEEING -0.2733
-4.1621 SIGN -0.2718
-4.9403 SIGNATURE -0.2733
-4.9403 SIGNIFICANT -0.3010
-4.6392 SIGNIFICANTLY -0.2733
-4.9403 SIGNING -0.2945
-4.9403 SILENT -0.3009
-4.4631 SILK -0.2681
-4.6392 SILLY -0.2733
-4.9403 SILO -0.2733
-4.6392 SILVER -0.2717
-4.6392 SIMILAR -0.2957
-4.9403 SIMILARITIES -0.3010
-4.9403 SIMILARLY -0.3006
-4.4631 SIMPLE -0.2663
-4.4631 SIMPLY -0.3009
-4.1621 SINCE -0.2953
-4.9403 SINCERE -0.3006
-4.9403 SINCERELY -0.3009
-4.9403 SING -0.2733
-4.9403 SINGER -0.2733
-4.9403 SINGER'S -0.3010
-4.6392 SINGING -0.2929
-4.3382 SINGLE -0.3007
-4.6392 SINK -0.2733
-4.9403 SINUSES -0.2733
-4.9403 SIR -0.2733
-4.9403 SISTER -0.2733
-4.9403 SISTER'S -0.3010
-4.6392 SISTERS -0.2717
-4.1621 SIT -0.2965
-4.4631 SITCOM -0.2719
-4.4631 SITE -0.2704
-4.9403 SITES -0.2990
-4.9403 SITTING -0.3009
-4.9403 SITUATED -0.2993
-3.9403 SITUATION -0.2655
-4.9403 SITUATIONS -0.2733
-3.5785 SIX -0.2716
-4.9403 SIXES -0.2733
-4.6392 SIXTEEN -0.2733
-4.9403 SIXTEENTH -0.2733
-4.4631 SIXTH -0.2732
-3.9860 SIXTY -0.3004
-4.2413 SIZE -0.2626
-4.9403 SKATEBOARDER -0.2974
-4.4631 SKATEBOARDING -0.2722
-4.9403 SKATING -0.2733
-4.4631 SKEPTICAL -0.2707
-4.9403 SKI -0.2733
-4.9403 SKIER -0.2733
-4.9403 SKIING -0.2733
-4.9403 SKILLED -0.2995
-3.9860 SKILLS -0.2663
-4.9403 SKINNY -0.2733
-4.9403 SKIPPING -0.2733
-4.2413 SKIRT -0.2685
-4.4631 SKY -0.2702
-4.9403 SKYDIVERS -0.3008
-4.3382 SKYDIVING -0.2733
-4.9403 SKYSCRAPER -0.2733
-4.9403 SLAP -0.3009
-4.9403 SLEEK -0.3010
-4.2413 SLEEP -0.2717
-4.3382 SLEEPING -0.2716
-4.9403 SLEEVELESS -0.3010
-4.9403 SLICE -0.2945
-4.4631 SLIDE -0.2721
-4.9403 SLIGHT -0.3010
-4.3382 SLIGHTLY -0.2730
-4.9403 SLIPPED -0.2961
-4.9403 SLIPPERY -0.2733
-4.6392 SLOGAN -0.2970
-4.9403 SLOPE -0.3010
-4.6392 SLOPPY -0.2733
-4.3382 SLOW -0.2733
-4.6392 SLOWDOWN -0.2733
-4.9403 SLOWER -0.2733
-4.4631 SLOWLY -0.2729
-4.9403 SLURP -0.2993
-4.9403 SLURPING -0.2993
-4.3382 SMALL -0.2728
-4.9403 SMALLER -0.2733
-4.3382 SMART -0.2724
-4.0372 SMARTPHONE -0.2677
-4.9403 SMARTPHONES -0.2733
-4.9403 SMELLS -0.3010
-4.6392 SMILE -0.2733
-4.6392 SMITH'S -0.2733
-4.2413 SMOKE -0.2721
-4.3382 SMOKING -0.2703
-4.9403 SMOOTHER -0.3010
-4.9403 SMOOTHLY -0.2733
-4.6392 SMS -0.2733
-4.9403 SMUGGLED -0.3006
-4.9403 SMUGGLING -0.2982
-4.9403 SNACK -0.3010
-4.3382 SNACKS -0.2717
-4.6392 SNAKE -0.2733
-4.9403 SNAKES -0.3003
-4.9403 SNIFFER -0.3010
-4.9403 SNOW -0.2733
-4.6392 SNOWBOARDING -0.2704
-4.9403 SNOWS -0.2963
-2.9625 SO -0.2332
-4.9403 SOARED -0.2733
-4.3382 SOCCER -0.2696
-4.9403 SOCIABLE -0.2995
-4.0952 SOCIAL -0.3009
-4.2413 SOCIETY -0.2733
-4.4631 SOCKS -0.2733
-4.6392 SODA -0.2732
-4.6392 SOFA -0.2733
-4.9403 SOFT -0.3002
-4.2413 SOFTWARE -0.2727
-4.2413 SOLAR -0.2982
-4.4631 SOLD -0.2936
-4.9403 SOLELY -0.2998
-4.9403 SOLICITOR -0.2733
-4.4631 SOLID -0.3009
-3.8611 SOLUTION -0.2645
-4.4631 SOLUTIONS -0.2719
-4.3382 SOLVE -0.2945
-2.9490 SOME -0.2659
-4.9403 SOMEDAY -0.2733
-3.9403 SOMEONE -0.2724
-3.3962 SOMETHING -0.2580
-4.9403 SOMETHING'S -0.3009
-3.9860 SOMETIMES -0.2884
-4.6392 SOMEWHAT -0.3010
-4.4631 SON -0.2722
-4.6392 SONG -0.2993
-4.6392 SONGS -0.2731
-3.8611 SOON -0.2709
-4.9403 SOONER -0.2996
-4.9403 SOOTHING -0.3010
-4.4631 SORE -0.3010
-3.2682 SORRY -0.2560
-4.9403 SORT -0.2990
-4.4631 SOUND -0.2732
-3.8989 SOUNDS -0.2990
-4.9403 SOUNDTRACK -0.2733
-4.9403 SOUNDTRACKS -0.3010
-4.2413 SOUP -0.2667
-4.9403 SOUPS -0.2733
-4.4631 SOUR -0.2733
-4.3382 SOURCE -0.2990
-4.9403 SOURCES -0.3010
-4.9403 SOUTH -0.2733
-4.9403 SOUTHERN -0.3010
-4.3382 SPA -0.2711
-4.0952 SPACE -0.2621
-4.3382 SPACES -0.2731
-4.9403 SPACESHIP -0.2733
-4.9403 SPAGHETTI -0.2733
-4.4631 SPAIN -0.2723
-4.9403 SPANISH -0.3010
